tree
version=v4
num_class=1
num_tree_per_iteration=1
label_index=0
max_feature_idx=6
objective=regression
feature_names=lag_1 lag_2 lag_3 roll_mean_3 roll_mean_6 month cust_enc
feature_infos=[-3585.8400000000001:70246.5] [-3585.8400000000001:70246.5] [-3585.8400000000001:70246.5] [-583.67999999999995:39211.510000000002] [-583.67999999999995:30550.618333333332] [1:12] [0:2799]
tree_sizes=2348 2287 2210 2513 2581 2373 2458 2497 2183 2607 2531 2534 1970 2535 2553 1878 2532 2132 2134 2346 2369 2194 2036 2113 2194 2366 2277 2032 1423 2189 2276 1415 1521 1950 1773 1766 1431 1425 1513 2047 1430 2384 1263 1260 2287 2457 1607 1270 1357 1346 1344 1772 2203 1348 2285 1360 1527 1355 1343 1179 1266 1526 1260 1349 1355 1262 1180 1339 1018 1263 1532 1261 2075 1915 1771 1782 1188 2084 863 780 1012 944 933 935 2082 937 1019 936 936 1022 1427 939 1258 1022 1178 941 1022 1164 859 1429 859 1281 1751 1022 938 942 940 848 853 940 938 851 934 1603 945 1181 862 1678 1017 1101 1019 851 850 930 944 1096 1755 1079 937 945 1349 1025 858 1346 857 842 926 1183 1580 946 1183 1174 1025 1680 1017 1105 1100 1107 861 1022 1361 852 1447 1279 1016 1528 926 856 848 1019 1829 1286 1019 858 1613 943 1014 941 844 1444 861 861 935 933 1271 860 1080 1278 771 1182 1263 1273 935 936 1275 1275 1279 1443 1265 1263 939 938 935 1913 1603 1269 775 1184 934 1257 1260 1742 1660 1502 1366 1018 856 1019 863 859 1186 860 937 939 1272 1363 1268 1818 1106 942 939 859 1272 1423 856 781 928 864 1193 1106 941 1196 1349 1918 1021 941 1281 1025 945 1030 933 1437 1705 944 1268 1578 1109 1022 939 1105 1419 1360 1179 1189 1285 1281 1109 941 1423 1028 1350 1502 1103 859 1280 1266 937 943 939 944 1110 938 937 1109 936 1270 1447 1016 1791 1113 1095 1022 1026 1353 1176 1591 1103 1092 1018 1104 1015 934 927 1098 937 1024 780 931 937 861

Tree=0
num_leaves=26
num_cat=0
split_feature=4 3 5 4 4 1 2 3 1 2 5 6 2 2 4 4 6 5 2 1 5 2 2 5 2
split_gain=1.04041e+10 2.20612e+09 1.67944e+09 2.92701e+08 2.87102e+08 2.73812e+08 1.42196e+08 9.2186e+07 7.61373e+07 6.92677e+07 6.64193e+07 5.72698e+07 5.48542e+07 5.80091e+07 3.54496e+07 3.29995e+07 1.96564e+07 1.2298e+07 1.12157e+07 1.07375e+07 1.01503e+07 7.34449e+06 5.52196e+06 2.84956e+06 1.88864e+06
threshold=7544.9250000000002 1927.4333333333334 7.5000000000000009 597.30750000000012 3311.2658333333343 -1.0000000180025095e-35 3429.3900000000008 209.30333333333337 1464.2350000000004 2125.0150000000008 8.5000000000000018 1313.5000000000002 2341.9700000000007 5983.1850000000004 295.58916666666676 176.35166666666672 2148.5000000000005 9.5000000000000018 2017.9800000000002 1740.2700000000002 10.500000000000002 7641.0550000000012 -59.754999999999988 1.5000000000000002 368.75500000000005
decision_type=2 2 2 2 2 10 8 2 10 8 2 2 10 10 2 2 2 2 8 10 2 8 10 2 10
left_child=1 3 -2 10 9 -6 7 -5 -9 17 15 21 -7 -14 20 24 -13 -3 -17 23 -12 -11 -16 -8 -1
right_child=2 4 -4 6 5 12 19 8 -10 11 14 16 13 -15 22 18 -18 -19 -20 -21 -22 -23 -24 -25 -26
leaf_value=319.37559000346505 728.63367007210297 452.60283502526408 1276.6137480606899 465.47214836231774 386.34709067864549 638.62357694827847 336.43836627516134 352.12703589844614 392.39701833644642 391.39736969323286 325.6239453367678 465.25293066408426 514.06380282921918 616.68649939875286 330.98492565086934 327.92881284964864 408.47202354703785 502.1972690462602 322.62604803835819 358.63293128533491 331.37426072020702 355.22780534548889 340.81127012692929 327.75295089491573 324.23039760867067
leaf_weight=4829 27 25 29 21 25 24 116 655 143 25 2319 35 40 21 180 2304 27 25 1758 33 1147 32 695 508 209
leaf_count=4829 27 25 29 21 25 24 116 655 143 25 2319 35 40 21 180 2304 27 25 1758 33 1147 32 695 508 209
internal_value=332.142 329.635 1012.41 327.029 468.937 531.806 348.165 362.065 359.343 428.017 324.708 407.267 574.587 549.393 329.797 322.281 440.526 477.4 325.634 330.837 327.527 371.092 338.79 329.368 319.577
internal_weight=15252 15196 56 14917 279 110 1476 819 798 169 13441 119 85 61 4341 9100 62 50 4062 657 3466 57 875 624 5038
internal_count=15252 15196 56 14917 279 110 1476 819 798 169 13441 119 85 61 4341 9100 62 50 4062 657 3466 57 875 624 5038
is_linear=0
shrinkage=1


Tree=1
num_leaves=25
num_cat=0
split_feature=4 3 5 4 4 1 2 3 1 2 5 2 2 4 4 5 0 0 2 1 4 5 0 4
split_gain=9.38971e+09 1.99102e+09 1.51569e+09 2.64163e+08 2.5911e+08 2.47115e+08 1.28331e+08 8.31978e+07 7.01191e+07 6.25141e+07 5.99434e+07 4.95059e+07 5.23532e+07 3.28468e+07 2.97821e+07 2.60622e+07 2.20247e+07 1.7002e+07 1.01222e+07 9.69056e+06 9.33861e+06 4.95836e+06 3.2122e+06 1.78213e+06
threshold=7544.9250000000002 1927.4333333333334 7.5000000000000009 597.30750000000012 3311.2658333333343 -1.0000000180025095e-35 3429.3900000000008 209.30333333333337 2523.5900000000006 2125.0150000000008 8.5000000000000018 2341.9700000000007 5983.1850000000004 176.35166666666672 176.35166666666672 9.5000000000000018 1870.7100000000003 2590.2750000000005 2017.9800000000002 1740.2700000000002 361.84333333333336 10.500000000000002 1025.4250000000004 88.762500000000017
decision_type=2 2 2 2 2 10 8 2 10 8 2 10 10 2 2 2 2 2 8 10 2 2 2 2
left_child=1 3 -2 10 9 -6 7 -5 -9 17 14 -7 -13 21 23 16 -11 -3 -16 22 -15 -12 -8 -1
right_child=2 4 -4 6 5 11 19 8 -10 15 13 12 -14 20 18 -17 -18 -19 -20 -21 -22 -23 -24 -25
leaf_value=-12.813472742385578 376.66755461516209 102.2863440322876 897.24861850080822 126.66410911196755 51.495306518554685 291.15796030362452 -4.7861346059363168 22.667361979825159 95.04313535417829 15.871076716547428 -7.1928125792822586 172.826185503006 270.31774660973326 0.6793238780321833 -4.0020586938982081 112.59118273422638 72.579160217740636 161.80180259704591 -9.0396851718054929 25.166853707486936 8.6548958528153257 -2.524328232479383 3.3480771411548966 -10.928128469381926
leaf_weight=2694 27 20 29 21 25 24 459 763 35 23 1807 40 21 1169 2304 29 67 30 1758 33 535 830 165 2344
leaf_count=2694 27 20 29 21 25 24 459 763 35 23 1807 40 21 1169 2304 29 67 30 1758 33 535 830 165 2344
internal_value=2.28236e-07 -2.38156 646.254 -4.85673 129.956 189.681 15.2221 28.4269 25.8417 91.0814 -7.06165 230.324 206.389 -2.22716 -9.36786 71.3696 58.0871 137.996 -6.1823 -1.23881 3.18339 -5.7234 -2.63526 -11.9363
internal_weight=15252 15196 56 14917 279 110 1476 819 798 169 13441 85 61 4341 9100 119 90 50 4062 657 1704 2637 624 5038
internal_count=15252 15196 56 14917 279 110 1476 819 798 169 13441 85 61 4341 9100 119 90 50 4062 657 1704 2637 624 5038
is_linear=0
shrinkage=0.05


Tree=2
num_leaves=24
num_cat=0
split_feature=4 3 5 4 4 1 3 1 5 1 5 6 6 6 6 3 4 4 1 1 0 4 5
split_gain=8.47421e+09 1.7969e+09 1.37374e+09 2.38407e+08 2.33847e+08 2.23021e+08 9.55098e+07 8.28423e+07 5.67786e+07 5.55737e+07 5.43009e+07 4.49913e+07 4.31205e+07 4.01434e+07 3.99508e+07 3.71322e+07 3.31579e+07 2.17911e+07 1.48727e+07 1.07002e+07 7.59999e+06 3.76121e+06 3.15667e+06
threshold=7544.9250000000002 1927.4333333333334 8.5000000000000018 597.30750000000012 3311.2658333333343 -1.0000000180025095e-35 209.30333333333337 2336.1550000000002 9.5000000000000018 -1.0000000180025095e-35 9.5000000000000018 2047.5000000000002 1313.5000000000002 2384.5000000000005 680.50000000000011 2542.5516666666672 170.99816666666669 256.17916666666673 3976.4350000000004 -58.504999999999988 1.0000000180025095e-35 112.38333333333334 8.5000000000000018
decision_type=2 2 2 2 2 10 2 10 2 10 2 2 2 2 2 2 2 2 8 10 2 2 2
left_child=1 3 -2 10 8 -6 -5 9 13 -8 16 12 -7 18 -9 -10 22 21 -3 -18 -19 -12 -1
right_child=2 4 -4 6 5 11 7 14 15 -11 17 -13 -14 -15 -16 -17 19 20 -20 -21 -22 -23 -24
leaf_value=-11.396264005140035 399.47548406124116 69.292427808267107 899.89608993530283 120.3309026899792 48.920539947509766 231.02217418882583 -3.8388951962051561 18.712437936534055 85.793637708517224 17.424481643584503 -5.1298099987362411 276.80159788131715 145.54396514892579 127.40563849535857 102.62823362801527 168.77426681518557 -9.6001009194960076 15.192634780545603 28.771708730550916 -3.944966815469602 3.6796526605924686 -0.84101169181400559 -8.205149814092918
leaf_weight=4916 32 54 24 21 25 36 457 23 26 938 1216 24 25 22 37 28 1088 187 39 3618 614 882 920
leaf_count=4916 32 54 24 21 25 36 457 23 26 938 1216 24 25 22 37 28 1088 187 39 3618 614 882 920
internal_value=1.20393e-07 -2.26248 613.941 -4.6139 123.458 180.197 14.461 12.9329 86.5274 10.4586 -6.70857 218.807 195.99 66.6679 70.4605 128.821 -8.37513 -0.648255 52.2999 -5.2524 6.36745 -3.3268 -10.8932
internal_weight=15252 15196 56 14917 279 110 1476 1455 169 1395 13441 85 61 115 60 54 10542 2899 93 4706 801 2098 5836
internal_count=15252 15196 56 14917 279 110 1476 1455 169 1395 13441 85 61 115 60 54 10542 2899 93 4706 801 2098 5836
is_linear=0
shrinkage=0.05


Tree=3
num_leaves=28
num_cat=0
split_feature=4 3 5 4 4 2 2 4 2 6 5 6 6 6 3 0 4 4 0 2 5 0 4 0 5 5 5
split_gain=7.64798e+09 1.6217e+09 1.25576e+09 2.16071e+08 2.11047e+08 1.28151e+08 1.03973e+08 7.6076e+07 5.43327e+07 4.92812e+07 4.79351e+07 3.05371e+07 4.34883e+07 2.92921e+07 2.77734e+07 2.75115e+07 2.383e+07 1.70714e+07 1.62114e+07 1.11586e+07 6.70337e+06 6.17959e+06 5.53941e+06 4.01395e+06 3.74728e+06 2.8489e+06 1.9547e+06
threshold=7544.9250000000002 1927.4333333333334 7.5000000000000009 524.55266666666682 3311.2658333333343 inf 3429.3900000000008 1190.5666666666668 2125.0150000000008 1428.5000000000002 9.5000000000000018 2047.5000000000002 1313.5000000000002 2148.5000000000005 169.00500000000002 165.92000000000004 170.99816666666669 264.19833333333338 3239.1700000000005 2017.9800000000002 6.5000000000000009 119.52000000000002 902.8375000000002 687.09000000000003 10.500000000000002 8.5000000000000018 2.5000000000000004
decision_type=2 2 2 2 2 8 8 2 8 2 2 2 2 2 2 2 2 2 2 8 2 2 2 2 2 2 2
left_child=1 3 -2 10 8 11 7 14 18 20 16 12 -6 -11 -5 -9 25 24 -3 -18 -10 -19 26 -24 -12 -1 -8
right_child=2 4 -4 6 5 -7 22 15 9 13 17 -13 -14 -15 -16 -17 19 21 -20 -21 -22 -23 23 -25 -26 -27 -28
leaf_value=-10.826451622256426 337.86039072672526 151.17407215663366 811.7053602021316 74.386462898254408 225.04531555175782 85.034647597036056 -1.1945056719318876 95.755930679075178 21.731879306450871 137.60992681063141 -5.1977939326245899 252.05296071370446 135.75449249267578 63.254156656618477 14.801966261809708 43.337116725628192 -3.453685232649061 14.381743374933681 93.818652829256934 -8.618556114226628 54.141528433340568 3.2961538055631188 17.108105209025933 1.0423885112073685 -1.0033781186624373 -7.7948926540504662 -7.3585060393226982
leaf_weight=4916 27 28 29 20 30 31 212 31 39 26 1061 24 25 27 883 130 2675 166 22 1717 27 518 47 225 1069 920 327
leaf_count=4916 27 28 29 20 30 31 212 31 39 26 1061 24 25 27 883 130 2675 166 22 1717 27 518 47 225 1069 920 327
internal_value=-9.24408e-08 -2.14936 583.244 -4.3832 117.285 171.187 11.4876 21.767 82.201 63.8242 -6.66489 204.994 184.459 99.7306 16.1217 53.4302 -8.25487 -0.885819 125.938 -5.47283 34.9904 5.98652 -1.99858 3.81845 -3.09271 -10.3485 -4.93408
internal_weight=15252 15196 56 14917 279 110 1875 1064 169 119 13042 79 55 53 903 161 10228 2814 50 4392 66 684 811 272 2130 5836 539
internal_count=15252 15196 56 14917 279 110 1875 1064 169 119 13042 79 55 53 903 161 10228 2814 50 4392 66 684 811 272 2130 5836 539
is_linear=0
shrinkage=0.05


Tree=4
num_leaves=29
num_cat=0
split_feature=3 2 3 6 1 1 2 3 3 2 2 2 6 1 5 2 2 1 1 3 1 3 0 6 6 5 5 6
split_gain=6.26537e+09 1.13589e+09 9.97458e+08 4.81137e+08 2.06084e+08 1.67145e+08 1.21384e+08 9.7688e+07 7.4979e+07 5.39874e+07 4.90827e+07 4.6753e+07 4.16883e+07 3.96273e+07 3.56692e+07 2.60071e+07 1.85331e+07 1.74068e+07 1.69962e+07 1.56551e+07 1.20843e+07 1.08948e+07 6.73299e+06 6.34856e+06 4.91741e+06 3.8351e+06 2.87074e+06 135671
threshold=5643.1566666666668 16.055000000000003 1927.4333333333334 2422.5000000000005 7930.0350000000008 654.18500000000006 16255.26 2542.5516666666672 1263.6333333333334 2017.9800000000002 454.03000000000003 1657.2050000000002 231.50000000000003 2795.3650000000002 10.500000000000002 387.44500000000011 1036.2600000000002 1871.9100000000001 16.055000000000003 559.29166666666686 1366.1700000000003 312.96500000000009 687.09000000000003 376.50000000000006 1313.5000000000002 11.500000000000002 4.5000000000000009 1638.5000000000002
decision_type=2 10 2 2 10 10 8 2 2 10 10 10 2 10 2 10 8 10 10 2 10 2 2 2 2 2 2 2
left_child=2 -2 5 4 -3 10 7 9 15 -4 14 -9 -8 -13 21 17 24 -7 27 23 -17 -1 -18 -12 -10 -16 -21 -14
right_child=1 3 6 -5 -6 8 12 11 16 -11 19 13 18 -15 25 20 22 -19 -20 26 -22 -23 -24 -25 -26 -27 -28 -29
leaf_value=-8.4202528213613785 123.13239153348482 292.8549259948731 118.03119158426921 686.07618686676028 510.1738916397095 2.4742909222044691 -13.543962783813477 222.19758895874025 59.606739578247073 20.574612666059423 8.7251383212416673 93.556894230842602 52.971449565887454 165.09485550705267 2.524962149090284 16.694372421741072 55.345166452469371 35.517228598821731 104.77368925484744 3.167336416571108 43.323519180297858 -4.055694874761798 26.72828937827564 -1.7916460289243465 94.668854198455819 -3.8230227254830993 14.264462064479876 47.147545900344852
leaf_weight=9227 26 20 30 25 24 781 20 20 20 27 172 32 20 49 992 288 31 42 22 73 50 1692 61 866 20 313 289 20
leaf_count=9227 26 20 30 25 24 781 20 20 20 27 172 32 20 49 992 288 31 42 22 73 50 1692 61 866 20 313 289 20
internal_value=1.0539e-08 404.785 -2.53709 510.916 411.393 -4.16404 98.585 124.202 13.0162 71.8675 -5.79455 153.737 49.2259 136.833 -6.81019 8.95633 48.7245 4.16056 69.4742 3.07343 20.6336 -7.74392 36.3709 -0.0489804 77.1378 1.00242 12.0266 50.0595
internal_weight=15252 95 15157 69 44 14917 240 158 1293 57 13624 101 82 81 12224 1161 132 823 62 1400 338 10919 92 1038 40 1305 362 40
internal_count=15252 95 15157 69 44 14917 240 158 1293 57 13624 101 82 81 12224 1161 132 823 62 1400 338 10919 92 1038 40 1305 362 40
is_linear=0
shrinkage=0.05


Tree=5
num_leaves=26
num_cat=0
split_feature=4 3 2 4 4 1 2 3 1 2 6 4 2 2 1 1 2 4 2 4 1 0 2 3 6
split_gain=6.38141e+09 1.29022e+09 5.17361e+08 1.80557e+08 1.64829e+08 1.69433e+08 9.27819e+07 6.47435e+07 5.53226e+07 4.74938e+07 4.50405e+07 3.78773e+07 3.49765e+07 3.33808e+07 2.47296e+07 2.43677e+07 1.92216e+07 8.67985e+06 1.15637e+07 6.09085e+06 5.83821e+06 2.86639e+06 2.71738e+06 2.03322e+06 899660
threshold=7544.9250000000002 1927.4333333333334 4387.8350000000009 597.30750000000012 3311.2658333333343 -1.0000000180025095e-35 3429.3900000000008 209.30333333333337 1464.2350000000004 2341.9700000000007 1235.5000000000002 279.83350000000007 5983.1850000000004 2341.9700000000007 1740.2700000000002 3074.4500000000003 3429.3900000000008 136.9941666666667 1080.3150000000003 430.64750000000009 1740.2700000000002 1025.4250000000004 7641.0550000000012 151.22000000000003 1092.5000000000002
decision_type=2 2 10 2 2 10 8 2 10 10 2 2 10 8 8 10 8 2 8 2 10 2 8 2 2
left_child=1 3 -2 11 10 -6 7 -5 -9 -7 13 17 -11 -3 -12 -16 19 23 -19 -13 21 -8 -15 -1 -18
right_child=2 4 -4 6 5 9 20 8 -10 12 14 16 -14 22 15 -17 24 18 -20 -21 -22 -23 -24 -25 -26
leaf_value=-8.6199894845244938 350.72536775340205 96.137675276256743 659.64109312115306 110.53197279430572 37.780900669097903 245.44235617319742 -4.4679646504211012 15.440272649717697 49.767146801114919 134.98081855773927 138.45284661865236 0.024241020921053309 214.66709710984006 35.294073352813726 58.04747147878011 117.45664325782232 -4.1449207458098343 -3.599715563730161 -9.5740007272508656 5.9040536265961165 19.143437113906398 3.2159305663542312 11.500791947046917 -4.0707182158366777 -6.8203231273072902
leaf_weight=6050 23 21 33 21 25 24 459 655 143 40 25 1320 21 20 45 28 511 2663 1164 661 33 165 30 256 816
leaf_count=6050 23 21 33 21 25 24 459 655 143 40 25 1320 21 20 45 28 511 2663 1164 661 33 165 30 256 816
internal_value=-1.20493e-07 -1.96334 532.765 -3.95584 104.568 152.203 12.6442 23.8721 21.5916 185.857 73.5624 -5.77874 162.414 43.2366 95.5331 80.8346 -1.13327 -7.29529 -5.41682 1.98616 -1.35226 -2.43617 21.0181 -8.43531 -5.79008
internal_weight=15252 15196 56 14917 279 110 1476 819 798 85 169 13441 61 71 98 73 3308 10133 3827 1981 657 624 50 6306 1327
internal_count=15252 15196 56 14917 279 110 1476 819 798 85 169 13441 61 71 98 73 3308 10133 3827 1981 657 624 50 6306 1327
is_linear=0
shrinkage=0.05


Tree=6
num_leaves=27
num_cat=0
split_feature=4 3 2 4 4 1 2 4 1 2 6 4 2 1 6 2 3 4 2 2 4 3 1 6 6 3
split_gain=5.75923e+09 1.16443e+09 4.66918e+08 1.63206e+08 1.48758e+08 1.52913e+08 7.57615e+07 4.80997e+07 6.03326e+07 4.28632e+07 4.15881e+07 3.8697e+07 3.70574e+07 3.16365e+07 2.88306e+07 1.9982e+07 1.00881e+07 9.7376e+06 1.24267e+07 6.55072e+06 6.01661e+06 5.50518e+06 5.06708e+06 4.23548e+06 1.88175e+06 1.83498e+06
threshold=7544.9250000000002 1927.4333333333334 4387.8350000000009 639.66500000000008 3311.2658333333343 -1.0000000180025095e-35 3429.3900000000008 1371.0000000000002 2336.1550000000002 2341.9700000000007 1428.5000000000002 311.3991666666667 1899.6700000000003 3489.2850000000003 2148.5000000000005 -59.754999999999988 928.01166666666666 136.9941666666667 1418.2750000000003 4387.8350000000009 430.64750000000009 315.38333333333338 216.46500000000003 1543.5000000000002 174.50000000000003 151.22000000000003
decision_type=2 2 10 2 2 10 8 2 10 10 2 2 8 10 2 10 2 2 8 8 2 2 10 2 2 2
left_child=1 3 -2 11 10 -6 7 16 -9 -7 12 17 -3 -11 -12 21 -5 25 -19 -14 -17 -13 24 -24 -8 -1
right_child=2 4 -4 6 5 9 22 8 -10 13 14 15 19 -15 -16 20 -18 18 -20 -21 -22 -23 23 -25 -26 -27
leaf_value=-8.1889898543584447 333.1890985903533 105.90381766727992 626.65904384381849 13.691031818219541 35.89185469055176 233.17023731867471 -12.486111297607422 36.269272211860212 130.91035952795119 112.51522507300746 128.93890790166083 11.347996930529675 47.76105264233005 185.32810666765488 67.326145455776114 0.60130933350420257 26.905949548030005 -3.1743238927225264 -8.8664858688978363 17.302577670027571 6.6087383822518149 -5.9447257089566889 0.99542532324790955 17.422425918891783 -2.1292408496558837 -3.8671821142779663
leaf_weight=6050 23 21 33 391 25 24 50 85 21 26 37 48 31 35 39 935 229 3057 1397 41 752 1118 110 61 357 256
leaf_count=6050 23 21 33 391 25 24 50 85 21 26 37 48 31 35 39 935 229 3057 1397 41 752 1118 110 61 357 256
internal_value=-8.06216e-08 -1.86517 506.127 -3.75805 99.3394 144.593 13.1399 23.8935 55.0189 176.564 69.8842 -5.37672 47.4621 154.293 97.3218 -0.199616 18.572 -6.74942 -4.95967 30.4166 3.27919 -5.23285 -0.367093 6.85535 -3.40158 -8.01354
internal_weight=15252 15196 56 14917 279 110 1304 726 106 85 169 13613 93 61 76 2853 620 10760 4454 72 1687 1166 578 171 407 6306
internal_count=15252 15196 56 14917 279 110 1304 726 106 85 169 13613 93 61 76 2853 620 10760 4454 72 1687 1166 578 171 407 6306
is_linear=0
shrinkage=0.05


Tree=7
num_leaves=28
num_cat=0
split_feature=3 5 3 6 1 1 2 3 3 2 2 5 6 1 2 6 2 2 1 0 3 1 1 5 3 0 6
split_gain=4.62553e+09 9.88114e+08 7.28295e+08 4.3011e+08 1.82992e+08 1.27592e+08 9.40971e+07 7.8397e+07 5.89334e+07 4.4225e+07 3.89643e+07 3.72604e+07 3.30169e+07 3.1216e+07 2.42656e+07 2.21863e+07 1.94998e+07 1.88712e+07 1.67875e+07 1.67412e+07 1.59556e+07 1.51736e+07 1.15547e+07 1.05532e+07 9.2007e+06 5.3473e+06 368044
threshold=5643.1566666666668 4.5000000000000009 1927.4333333333334 2422.5000000000005 7930.0350000000008 654.18500000000006 16255.26 2542.5516666666672 1444.8483333333336 2017.9800000000002 1657.2050000000002 8.5000000000000018 231.50000000000003 2795.3650000000002 387.44500000000011 503.50000000000006 492.74500000000006 640.11000000000013 2336.1550000000002 991.63000000000011 173.24833333333336 1464.2350000000004 16.055000000000003 10.500000000000002 312.96500000000009 1658.5800000000002 1638.5000000000002
decision_type=2 2 2 2 10 10 8 2 2 10 10 2 2 10 10 2 10 10 10 2 2 10 10 2 2 2 2
left_child=2 -2 5 4 -3 11 7 9 14 -4 -9 16 -8 -12 18 -10 24 23 -7 -17 -18 -16 26 -13 -1 -19 -14
right_child=1 3 6 -5 -6 8 12 10 15 -11 13 17 22 -15 21 19 20 25 -20 -21 -22 -23 -24 -25 -26 -27 -28
leaf_value=-8.2298846046433969 104.53432044078563 250.73021392822267 101.68108837286633 629.2177232493525 457.52582450534987 2.7240416864212378 -15.092147331237795 195.73938549041748 9.8784593322060346 13.474945025973851 79.399500244855886 -3.8486906881916854 47.577282981872564 142.89279641910477 15.142204937628444 103.25136491602119 42.541646066578956 9.5934663888692864 44.321080863952638 48.173529547614024 -0.61228421507300035 43.802200403919926 87.89444274902344 1.546594900928481 -3.8453566845333222 35.862381490071613 37.985052108764648
leaf_weight=7052 29 20 30 23 23 814 20 20 22 27 32 2648 20 49 319 22 22 250 25 37 812 54 22 1378 1441 21 20
leaf_count=7052 29 20 30 23 23 814 20 20 22 27 32 2648 20 49 319 22 22 250 25 37 812 54 22 1378 1441 21 20
internal_value=7.26821e-08 347.802 -2.17993 454.693 361.342 -3.57015 84.2277 106.782 11.4403 59.8992 133.241 -4.99473 40.7693 117.809 8.68076 52.7318 -6.76955 -1.14234 3.96352 68.711 0.526069 19.2914 58.7891 -2.00202 -7.48597 11.6291 42.7812
internal_weight=15252 95 15157 66 43 14917 240 158 1293 57 101 13624 82 81 1212 81 9327 4297 839 59 834 373 62 4026 8493 271 40
internal_count=15252 95 15157 66 43 14917 240 158 1293 57 101 13624 82 81 1212 81 9327 4297 839 59 834 373 62 4026 8493 271 40
is_linear=0
shrinkage=0.05


Tree=8
num_leaves=24
num_cat=0
split_feature=4 5 3 4 4 3 2 2 5 4 5 6 4 4 5 4 2 0 4 2 4 4 5
split_gain=4.80808e+09 9.87615e+08 9.25378e+08 1.36884e+08 1.15758e+08 7.401e+07 6.89139e+07 5.76049e+07 4.04307e+07 4.00619e+07 3.82879e+07 3.36656e+07 2.72281e+07 1.96134e+07 1.93309e+07 1.55847e+07 1.45145e+07 8.47983e+06 5.58156e+06 5.04456e+06 3.59812e+06 3.43788e+06 2.4464e+06
threshold=7544.9250000000002 8.5000000000000018 1927.4333333333334 597.30750000000012 3311.2658333333343 209.30333333333337 inf 3429.3900000000008 9.5000000000000018 1509.9708333333335 8.5000000000000018 2384.5000000000005 2129.6616666666673 176.35166666666672 7.5000000000000009 279.83350000000007 4387.8350000000009 1870.7100000000003 361.84333333333336 2017.9800000000002 902.8375000000002 103.14666666666668 10.500000000000002
decision_type=2 2 2 2 2 2 8 8 2 2 2 2 2 2 2 2 10 2 2 8 2 2 2
left_child=2 -2 3 10 8 -5 14 9 11 -7 15 17 -10 22 16 21 -6 -4 -15 -17 -9 -1 -12
right_child=1 -3 4 5 6 7 -8 20 12 -11 13 -13 -14 18 -16 19 -18 -19 -20 -21 -22 -23 -24
leaf_value=-9.2563035341604945 280.60376584529877 704.90777867635097 6.2769618511199958 104.25731744312105 202.94639288860822 15.243025794075969 65.258823748557802 -4.3576495615538064 59.98217966461182 54.592658257820233 -4.848876041325668 101.39596145803279 131.18654132053771 1.1299421638326832 126.19576288859051 -1.0649929528217688 144.70572753906251 41.270842266082767 7.2958708007262905 -5.7077152327861462 3.1546934015610639 -6.9942955899945689 -1.5696519720787743
leaf_weight=3125 32 24 23 21 23 727 31 385 25 71 1807 22 29 1169 36 1211 20 70 535 1132 272 3632 830
leaf_count=3125 32 24 23 21 23 727 31 385 25 71 1807 22 29 1169 36 1211 20 70 535 1132 272 3632 830
internal_value=5.06642e-08 462.448 -1.70421 -3.39164 88.516 11.062 128.436 9.71693 62.5326 18.7441 -4.97884 45.7743 98.2216 -1.11507 153.227 -6.82199 175.858 32.6164 3.06584 -3.30808 -1.24752 -8.04044 -3.81673
internal_weight=15252 56 15196 14917 279 1476 110 1455 169 798 13441 115 54 4341 79 9100 43 93 1704 2343 657 6757 2637
internal_count=15252 56 15196 14917 279 1476 110 1455 169 798 13441 115 54 4341 79 9100 43 93 1704 2343 657 6757 2637
is_linear=0
shrinkage=0.05


Tree=9
num_leaves=29
num_cat=0
split_feature=4 5 3 4 3 2 1 2 3 2 4 1 2 5 4 2 5 4 4 1 3 2 1 1 5 4 3 5
split_gain=4.3393e+09 8.91322e+08 8.35154e+08 1.24023e+08 1.0481e+08 7.43218e+07 6.36271e+07 5.82125e+07 4.87687e+07 4.02496e+07 3.82564e+07 5.20172e+07 3.28607e+07 3.27707e+07 2.50626e+07 2.10091e+07 2.07274e+07 1.7424e+07 1.71716e+07 9.96493e+06 7.62828e+06 6.95972e+06 5.37742e+06 3.99681e+06 4.29569e+06 3.10268e+06 2.79972e+06 2.23226e+06
threshold=7544.9250000000002 8.5000000000000018 1927.4333333333334 639.66500000000008 3788.8283333333343 -116.88999999999999 16.055000000000003 3429.3900000000008 2542.5516666666672 2017.9800000000002 1190.5666666666668 2523.5900000000006 2999.9900000000007 8.5000000000000018 3311.2658333333343 5983.1850000000004 1.5000000000000002 279.83350000000007 176.35166666666672 4397.920000000001 1.0000000180025095e-35 2017.9800000000002 1366.1700000000003 216.46500000000003 1.5000000000000002 103.14666666666668 1202.2 9.5000000000000018
decision_type=2 2 2 2 2 10 10 8 2 10 2 10 10 2 2 10 2 2 2 8 2 8 10 10 2 2 2 2
left_child=2 -2 3 13 5 16 -6 10 9 -7 22 -12 -8 17 -10 -14 -4 25 27 -18 -20 -19 -5 24 -9 -1 -25 -15
right_child=1 -3 4 7 6 8 12 23 14 -11 11 -13 15 18 -16 -17 19 21 20 -21 -22 -23 -24 26 -26 -27 -28 -29
leaf_value=-8.7934884083560707 266.57357332706454 669.66240523656211 61.877790757884149 12.559407675410961 56.118080971457744 93.514655113220215 204.19475388960404 5.4671272632178916 96.152287249131632 9.3662642218448493 31.129310493332021 113.87353514758024 96.473191634468421 -5.574083408372382 163.65660400390627 166.54268447875978 29.981815955752417 -0.15896435817601262 18.044560613693335 -15.941820250617134 2.0480423988976928 -5.4732559471960238 25.390704976669468 3.0726479962042403 -6.1329907777325419 -6.644580921993513 19.67922784128497 -2.5396094936380198
leaf_weight=3125 32 24 23 466 22 30 22 109 44 27 139 22 23 944 20 20 21 1274 78 27 1674 1193 99 140 298 3632 31 1693
leaf_count=3125 32 24 23 466 22 30 22 109 44 27 139 22 23 944 20 20 21 1274 78 27 1674 1193 99 140 298 3632 31 1693
internal_value=1.92381e-08 439.326 -1.619 -3.22206 84.0902 63.4611 129.616 11.5085 87.2906 53.6549 20.9346 42.436 154.493 -4.63311 117.247 129.064 22.8504 -6.32533 -1.07669 4.14977 2.76022 -2.72887 14.8077 -0.331293 -3.02633 -7.63841 6.0832 -3.6259
internal_weight=15252 56 15196 14917 279 192 87 1304 121 57 726 161 65 13613 64 43 71 9224 4389 48 1752 2467 565 578 407 6757 171 2637
internal_count=15252 56 15196 14917 279 192 87 1304 121 57 726 161 65 13613 64 43 71 9224 4389 48 1752 2467 565 578 407 6757 171 2637
is_linear=0
shrinkage=0.05


Tree=10
num_leaves=28
num_cat=0
split_feature=4 5 4 4 4 1 2 5 4 2 4 1 2 6 2 5 6 0 1 5 4 1 2 4 4 4 5
split_gain=3.91621e+09 8.19766e+08 7.1826e+08 1.17716e+08 1.10385e+08 1.09396e+08 5.21649e+07 5.15422e+07 4.06923e+07 3.91497e+07 3.34039e+07 2.99951e+07 2.50751e+07 2.43689e+07 2.34465e+07 2.07181e+07 1.84866e+07 1.46373e+07 1.10025e+07 1.0252e+07 9.36357e+06 7.36118e+06 7.99374e+06 5.61127e+06 3.89684e+06 3.76625e+06 2.65319e+06
threshold=7544.9250000000002 6.5000000000000009 1885.5404166666669 846.6450000000001 3311.2658333333343 -1.0000000180025095e-35 2125.0150000000008 9.5000000000000018 311.3991666666667 2341.9700000000007 1371.0000000000002 1560.7150000000004 5983.1850000000004 1626.5000000000002 -59.754999999999988 8.5000000000000018 1136.5000000000002 2396.3150000000001 310.87500000000006 10.500000000000002 2129.6616666666673 216.46500000000003 2528.0400000000004 108.70583333333336 316.41833333333341 141.8741666666667 1.5000000000000002
decision_type=2 2 2 2 2 10 8 2 2 10 2 10 10 2 10 2 2 2 10 2 2 10 10 2 2 2 2
left_child=2 -2 3 8 7 -6 10 16 15 -7 17 -12 -11 -9 24 25 18 -5 -4 -16 -18 26 -23 -17 -10 -1 -8
right_child=1 -3 4 6 5 9 21 13 14 12 11 -13 -14 -15 19 23 20 -19 -20 -21 -22 22 -24 -25 -26 -27 -28
leaf_value=-8.0506560562415199 188.2127918077552 577.06802779688985 36.943278416720304 18.841267381065574 24.068475372314452 195.56146241569522 7.3285072233527906 64.28836137522822 8.4829095108755705 98.685839471584416 33.747075072578767 97.379821912703974 165.87288818359377 139.75303140640258 2.5328468740826304 -4.2909782775260696 76.075653961181644 61.32843941775235 -11.539014266967774 11.899291007418029 38.953762460204793 7.4173340711778808 40.019594652756403 -0.30985598603479153 -4.7507841032918767 -5.7304403919691707 -4.4740860159679121
leaf_weight=4218 23 33 22 258 25 25 64 23 58 41 46 31 21 20 1650 1887 25 22 25 355 53 103 23 1667 1360 2988 186
leaf_count=4218 23 33 22 258 25 25 64 23 58 41 46 31 21 20 1650 1887 25 22 25 355 53 103 23 1667 1360 2988 186
internal_value=1.2551e-08 417.36 -1.53805 -3.0274 77.8022 116.252 16.5112 52.1691 -4.03719 142.741 30.2 59.3655 121.443 99.3882 0.711186 -5.54775 35.9257 22.1795 11.1548 4.19124 50.8518 3.51404 13.3685 -2.42364 -4.20949 -7.08857 -1.45262
internal_weight=15252 56 15196 14916 280 112 733 168 14183 87 357 77 62 43 3423 10760 125 280 47 2005 78 376 126 3554 1418 7206 250
internal_count=15252 56 15196 14916 280 112 733 168 14183 87 357 77 62 43 3423 10760 125 280 47 2005 78 376 126 3554 1418 7206 250
is_linear=0
shrinkage=0.05


Tree=11
num_leaves=28
num_cat=0
split_feature=4 5 3 4 3 2 1 2 3 4 1 2 2 5 3 4 5 2 4 4 1 2 3 1 5 4 2
split_gain=3.53438e+09 7.46778e+08 6.81682e+08 1.03244e+08 8.79421e+07 6.44529e+07 5.26183e+07 5.13257e+07 4.15087e+07 4.01896e+07 4.45211e+07 3.47649e+07 2.8898e+07 2.81074e+07 2.09022e+07 2.07767e+07 1.89917e+07 1.72027e+07 1.11385e+07 9.8799e+06 9.75652e+06 5.91533e+06 3.65621e+06 3.57746e+06 2.33538e+06 2.18738e+06 1.49724e+06
threshold=7544.9250000000002 8.5000000000000018 1927.4333333333334 524.55266666666682 3788.8283333333343 -116.88999999999999 16.055000000000003 3429.3900000000008 2542.5516666666672 1190.5666666666668 2523.5900000000006 2017.9800000000002 2999.9900000000007 9.5000000000000018 169.00500000000002 3311.2658333333343 1.5000000000000002 5983.1850000000004 170.99816666666669 256.17916666666673 4397.920000000001 872.88000000000011 46.021666666666668 1740.2700000000002 2.5000000000000004 90.198000000000022 360.55000000000007
decision_type=2 2 2 2 2 10 10 8 2 2 10 10 10 2 2 2 2 10 2 2 8 8 2 10 2 2 10
left_child=2 -2 3 13 5 16 -6 9 11 14 -11 -7 -8 18 -5 -10 -4 -14 26 25 -18 -20 -21 24 -9 -15 -1
right_child=1 -3 4 7 6 8 12 23 15 10 -12 -13 17 19 -16 -17 20 -19 21 22 -22 -23 -24 -25 -26 -27 -28
leaf_value=-7.3003415907714349 238.36598067283632 607.325878238678 56.616364437600843 61.726445939540866 50.837372727827592 85.281510670979827 186.90660858154297 1.3318271906757513 87.698533968491986 27.836972732771621 104.38732328848405 7.0763361401028106 86.960444176715356 -3.4408204556744773 10.035444236831109 149.16056739807129 26.91867296128046 150.36543739318847 -2.2316234717872252 26.087546844482421 -18.52219256648311 -5.9460829697200284 4.404391565820438 14.710085382967286 -4.2860308472859234 -0.21117170882575653 -3.2429738252977787
leaf_weight=5599 32 24 23 20 22 30 22 303 44 139 22 27 23 1027 883 20 21 20 2535 20 27 1857 696 33 475 1071 237
leaf_count=5599 32 24 23 20 22 30 22 303 44 139 22 27 23 1027 883 20 21 20 2535 20 27 1857 696 33 475 1071 237
internal_value=5.84185e-08 396.492 -1.46114 -2.90944 75.9734 57.0772 117.675 8.06123 79.2682 15.2835 38.2973 48.237 140.298 -4.48665 11.1803 106.905 19.2587 116.451 -5.70417 -0.0613646 1.35819 -3.80215 5.01007 -1.41417 -2.0981 -1.79213 -7.13557
internal_weight=15252 56 15196 14917 279 192 87 1875 121 1064 161 57 65 13042 903 64 71 43 10228 2814 48 4392 716 811 778 2098 5836
internal_count=15252 56 15196 14917 279 192 87 1875 121 1064 161 57 65 13042 903 64 71 43 10228 2814 48 4392 716 811 778 2098 5836
is_linear=0
shrinkage=0.05


Tree=12
num_leaves=21
num_cat=0
split_feature=4 5 3 4 6 1 1 0 1 1 5 0 5 4 4 3 1 5 4 5
split_gain=3.18978e+09 6.87074e+08 6.15218e+08 9.32682e+07 7.94474e+07 7.76848e+07 7.25122e+07 6.27693e+07 3.76716e+07 2.94422e+07 2.48886e+07 2.41345e+07 1.53364e+07 1.28311e+07 1.2826e+07 6.7542e+06 4.40313e+06 3.12248e+06 2.31894e+06 1.90656e+06
threshold=7544.9250000000002 6.5000000000000009 1927.4333333333334 639.66500000000008 2422.5000000000005 34.70000000000001 2795.3650000000002 2396.3150000000001 3074.4500000000003 -1.0000000180025095e-35 8.5000000000000018 4619.7100000000009 4.5000000000000009 279.83350000000007 176.35166666666672 1.0000000180025095e-35 1174.3900000000003 1.5000000000000002 103.14666666666668 10.500000000000002
decision_type=2 2 2 2 2 8 10 2 10 10 2 2 2 2 2 2 8 2 2 2
left_child=2 -2 3 10 5 -4 11 -8 9 17 13 -7 -11 18 19 -16 -15 -5 -1 -12
right_child=1 -3 4 8 -6 6 7 -9 -10 12 14 -13 -14 16 15 -17 -18 -19 -20 -21
leaf_value=-7.5877572297172549 166.88385042936906 522.87960261720605 151.32594909667969 5.0100971650639812 140.41091766357422 17.5323360165346 31.575244824545724 115.3280862377536 67.380183982849118 2.9031984197130374 -4.0025971179777544 77.553959197998054 17.996473310467767 -0.95185770350582521 16.809806220348065 1.7576384071269595 -5.5090273578188613 -4.8580142990197288 -5.7299799388305841 -1.1077051183545448
leaf_weight=3125 23 33 22 109 37 103 35 62 28 229 1807 20 635 1696 78 1674 771 303 3632 830
leaf_count=3125 23 33 22 109 37 103 35 62 28 229 1807 20 635 1696 78 1674 771 303 3632 830
internal_value=-3.35084e-08 376.667 -1.38809 -2.76397 72.1748 61.742 52.7836 85.108 10.0102 8.75134 -3.98762 27.2919 13.9961 -5.46236 -0.888274 2.42777 -2.37609 -2.24728 -6.58917 -3.09143
internal_weight=15252 56 15196 14917 279 242 220 97 1304 1276 13613 123 864 9224 4389 1752 2467 412 6757 2637
internal_count=15252 56 15196 14917 279 242 220 97 1304 1276 13613 123 864 9224 4389 1752 2467 412 6757 2637
is_linear=0
shrinkage=0.05


Tree=13
num_leaves=28
num_cat=0
split_feature=4 5 4 4 4 1 5 2 2 4 4 6 1 2 2 6 5 0 1 4 5 1 2 4 4 1 5
split_gain=2.87878e+09 6.25666e+08 5.29506e+08 8.94288e+07 8.3646e+07 8.76288e+07 4.33597e+07 4.09425e+07 3.53204e+07 3.04064e+07 2.67115e+07 2.78643e+07 2.30627e+07 2.30048e+07 1.8168e+07 1.55933e+07 1.54953e+07 1.21729e+07 9.7472e+06 8.7919e+06 8.50813e+06 5.51878e+06 6.69055e+06 4.17198e+06 3.55854e+06 3.14795e+06 2.21725e+06
threshold=7544.9250000000002 8.5000000000000018 1885.5404166666669 846.6450000000001 3311.2658333333343 -1.0000000180025095e-35 9.5000000000000018 2125.0150000000008 2341.9700000000007 311.3991666666667 1371.0000000000002 1751.5000000000002 3489.2850000000003 2017.9800000000002 -59.754999999999988 1136.5000000000002 8.5000000000000018 2396.3150000000001 310.87500000000006 2129.6616666666673 10.500000000000002 216.46500000000003 2528.0400000000004 108.70583333333336 316.41833333333341 305.44000000000011 1.5000000000000002
decision_type=2 2 2 2 2 10 2 8 10 2 2 2 10 10 10 2 2 2 10 2 2 10 10 2 2 10 2
left_child=2 -2 3 9 6 -6 15 10 -7 16 17 -12 -10 -8 24 18 25 -5 -4 -17 -16 26 -23 -18 -11 -1 -9
right_child=1 -3 4 7 5 8 13 21 12 14 11 -13 -14 -15 20 19 23 -19 -20 -21 -22 22 -24 -25 -26 -27 -28
leaf_value=-6.5348985444061869 213.09730405807497 550.81558837890623 31.114289821277964 16.343370270590452 17.769856384277343 174.15219580078127 53.695680618286133 6.6449854962527759 69.031506912796587 8.4244431355903888 32.400232841580547 97.337819846471163 130.53567705426897 127.01780027627944 2.1796111529451427 67.741610237121591 -3.6917031547997325 55.089262156053024 -14.518544235229493 31.770765059849005 10.712341383208692 6.0061233317967755 35.832727195905605 -0.25892375263362571 -4.2217659860704897 -3.5094487109439885 -4.1445091374458807
leaf_weight=6208 32 24 22 258 25 25 23 64 27 58 53 24 35 20 1650 25 1887 22 25 53 355 103 23 1667 1360 998 186
leaf_count=6208 32 24 22 258 25 25 23 64 27 58 53 24 35 20 1650 25 1887 22 25 53 355 103 23 1667 1360 998 186
internal_value=-1.85902e-08 357.834 -1.31868 -2.59745 66.8034 100.274 44.4899 14.4325 123.982 -3.47759 26.5599 52.6405 103.752 87.799 0.62701 29.5915 -4.78336 19.3877 6.84151 43.2999 3.69039 2.91804 11.4507 -2.08156 -3.7045 -6.11589 -1.3824
internal_weight=15252 56 15196 14916 280 112 168 733 87 14183 357 77 62 43 3423 125 10760 280 47 78 2005 376 126 3554 1418 7206 250
internal_count=15252 56 15196 14916 280 112 168 733 87 14183 357 77 62 43 3423 125 10760 280 47 78 2005 376 126 3554 1418 7206 250
is_linear=0
shrinkage=0.05


Tree=14
num_leaves=28
num_cat=0
split_feature=4 5 3 4 3 2 1 2 4 1 0 5 2 2 5 3 3 2 4 4 3 2 4 1 1 5 2
split_gain=2.5981e+09 5.75868e+08 5.02318e+08 7.80842e+07 6.8565e+07 5.20103e+07 4.1647e+07 3.96643e+07 3.75895e+07 3.74771e+07 3.56285e+07 4.70252e+07 2.45963e+07 2.41594e+07 1.8095e+07 1.75323e+07 1.72697e+07 1.59249e+07 6.1025e+06 4.41743e+06 8.15649e+06 3.59833e+06 2.87269e+06 2.99325e+06 1.5428e+06 1.34681e+06 1.31451e+06
threshold=7544.9250000000002 6.5000000000000009 1927.4333333333334 430.64750000000009 3788.8283333333343 -1.0000000180025095e-35 16.055000000000003 3429.3900000000008 1190.5666666666668 2523.5900000000006 2396.3150000000001 7.5000000000000009 2017.9800000000002 2999.9900000000007 9.5000000000000018 169.00500000000002 2542.5516666666672 5983.1850000000004 170.99816666666669 131.71600000000004 1.0000000180025095e-35 2017.9800000000002 902.8375000000002 738.34000000000015 371.23500000000007 2.5000000000000004 360.55000000000007
decision_type=2 2 2 2 2 10 10 8 2 10 2 2 10 10 2 2 2 10 2 2 2 8 2 10 10 2 10
left_child=2 -2 3 14 5 16 -6 8 15 -10 11 -7 -12 -8 18 -5 -4 -15 26 24 -21 -20 25 -24 -16 -9 -1
right_child=1 -3 4 7 6 10 13 22 9 -11 12 -13 -14 17 19 -17 -18 -19 21 20 -22 -23 23 -25 -26 -27 -28
leaf_value=-6.3198259449115319 147.88479778455653 473.80009488192474 36.83965924739838 45.771073341369629 42.577555292302918 -21.123256737845285 164.78320888172496 -0.7140354040118515 23.979368366054494 94.213287422873762 122.98647304773331 81.330127453804025 65.093397648389953 71.988433688619864 -2.7515252164118276 7.1054384654510656 -12.440671539306642 132.99322761535646 -2.3979510508703274 17.71028637515532 0.61752933725185322 -5.5395132185036822 -0.65910020458454988 11.030270490834589 8.0346422546050125 -4.9267069876194007 -2.5181076992413165
leaf_weight=5599 23 33 40 30 22 21 22 305 139 22 32 24 43 23 1330 1289 32 20 2378 74 1228 1478 196 76 34 502 237
leaf_count=5599 23 33 40 30 22 21 22 305 139 22 32 24 43 23 1330 1289 32 20 2378 74 1228 1478 196 76 34 502 237
internal_value=-5.8111e-08 339.942 -1.25275 -2.49599 65.2184 48.5333 102.041 5.45369 10.7688 33.5765 68.691 33.5185 89.7944 122.167 -4.14215 7.98487 14.9373 100.363 -5.14561 -0.494172 1.58901 -3.60211 -1.83677 2.60705 -2.48266 -3.33456 -6.16544
internal_weight=15252 56 15196 14917 279 192 87 2559 1480 161 120 45 75 65 12358 1319 72 43 9692 2666 1302 3856 1079 272 1364 807 5836
internal_count=15252 56 15196 14917 279 192 87 2559 1480 161 120 45 75 65 12358 1319 72 43 9692 2666 1302 3856 1079 272 1364 807 5836
is_linear=0
shrinkage=0.05


Tree=15
num_leaves=20
num_cat=0
split_feature=4 5 3 4 6 1 1 0 3 1 1 0 5 4 4 1 5 5 5
split_gain=2.34478e+09 5.24188e+08 4.53342e+08 7.10027e+07 6.72746e+07 6.90607e+07 5.59593e+07 5.21247e+07 4.00147e+07 3.30186e+07 2.50455e+07 2.00428e+07 2.00048e+07 7.65086e+06 5.95092e+06 5.00399e+06 4.56481e+06 3.47312e+06 1.46465e+06
threshold=7544.9250000000002 8.5000000000000018 1927.4333333333334 531.43333333333351 2422.5000000000005 34.70000000000001 2795.3650000000002 1376.1450000000002 169.00500000000002 3074.4500000000003 60.550000000000011 4619.7100000000009 10.500000000000002 170.99816666666669 222.1141666666667 1211.0850000000003 11.500000000000002 8.5000000000000018 11.500000000000002
decision_type=2 2 2 2 2 8 10 2 2 10 10 2 2 2 2 8 2 2 2
left_child=2 -2 3 12 5 -4 11 -8 -5 10 -10 -7 13 17 18 -15 -16 -1 -14
right_child=1 -3 4 8 -6 6 7 -9 9 -11 -12 -13 14 15 16 -17 -18 -19 -20
leaf_value=-6.1411629858516834 190.46501310467721 499.58482793172197 136.82237521084872 69.70903795051575 124.74891453820305 12.622905308297538 2.5795720781598774 91.573673887942974 -1.8438784808041113 59.88311563219343 10.224474434697914 67.320484390258784 0.55788699743749282 -2.0071875524718212 9.6133744151470921 -5.8431229625398267 -0.37432191005383419 -3.5603265243530977 -4.0892001335773989
leaf_weight=4916 32 24 22 25 37 103 21 76 741 28 1024 20 763 3827 334 1093 174 1774 218
leaf_count=4916 32 24 22 25 37 103 21 76 741 28 1024 20 763 3827 334 1093 174 1774 218
internal_value=-5.65508e-08 322.945 -1.19011 -2.37119 61.9575 52.3572 43.9106 72.3069 6.88834 6.01242 5.15782 21.5168 -3.65631 -4.35607 1.79984 -2.85936 6.19239 -5.4568 -0.474799
internal_weight=15252 56 15196 14917 279 242 220 97 1818 1793 1765 123 13099 11610 1489 4920 508 6690 981
internal_count=15252 56 15196 14917 279 242 220 97 1818 1793 1765 123 13099 11610 1489 4920 508 6690 981
is_linear=0
shrinkage=0.05


Tree=16
num_leaves=28
num_cat=0
split_feature=4 5 4 4 4 1 5 2 2 5 2 4 6 1 2 6 5 6 4 1 4 1 5 1 2 5 5
split_gain=2.11617e+09 4.82669e+08 3.92624e+08 6.80073e+07 6.61265e+07 7.09518e+07 3.47403e+07 3.29511e+07 3.12832e+07 2.2988e+07 2.10851e+07 2.10374e+07 2.42015e+07 1.98778e+07 1.66628e+07 1.37109e+07 1.02098e+07 9.85266e+06 9.4885e+06 8.33228e+06 8.03515e+06 7.61944e+06 6.00515e+06 3.83207e+06 5.60464e+06 2.66489e+06 2.05733e+06
threshold=7544.9250000000002 6.5000000000000009 1885.5404166666669 846.6450000000001 3311.2658333333343 -1.0000000180025095e-35 9.5000000000000018 2125.0150000000008 2341.9700000000007 10.500000000000002 2017.9800000000002 1371.0000000000002 1751.5000000000002 3489.2850000000003 436.72500000000008 1136.5000000000002 8.5000000000000018 376.50000000000006 420.49500000000006 310.87500000000006 2129.6616666666673 305.44000000000011 11.500000000000002 216.46500000000003 2528.0400000000004 11.500000000000002 1.5000000000000002
decision_type=2 2 2 2 2 10 2 8 10 2 10 2 2 10 10 2 2 2 2 10 2 10 2 10 10 2 2
left_child=2 -2 3 9 6 -6 15 11 -7 14 -8 16 -13 -10 21 19 -5 -16 25 -4 -17 -1 -20 26 -25 -11 -9
right_child=1 -3 4 7 5 8 10 23 13 18 -12 12 -14 -15 17 20 -18 -19 22 -21 -22 -23 -24 24 -26 -27 -28
leaf_value=-5.005718692339693 130.96731341818105 429.34612579345708 25.463340724598279 9.3381127068684204 13.049606811523439 155.83797167968751 43.806443289051884 6.4383141577243812 57.34916321524868 2.1723646054231542 114.00257447242737 27.781082869475746 88.300240679581975 114.44888170514787 10.553755790067589 60.574563903808603 28.8272692201393 -0.49961130648389562 16.665495139017874 -16.727622055053711 26.186598580738288 -1.7235059125688281 0.98134911516879475 4.4163288884949914 31.715327611176868 -2.8647859821745087 -3.9547973235448204
leaf_weight=8992 23 33 22 168 25 25 23 64 27 1025 20 53 24 35 247 25 112 1097 174 25 53 2201 94 103 23 353 186
leaf_count=8992 23 33 22 168 25 25 23 64 27 1025 20 53 24 35 247 25 112 1097 174 25 53 2201 94 103 23 353 186
internal_value=8.73732e-08 306.798 -1.1306 -2.23175 57.5292 87.2886 37.6896 12.6192 108.622 -2.99927 76.4558 23.4988 46.6442 89.5829 -3.72866 24.3541 17.1338 1.53177 2.55616 3.02134 37.2084 -4.3603 11.1643 2.28935 9.39948 0.882006 -1.29416
internal_weight=15252 56 15196 14916 280 112 168 733 87 14183 43 357 77 62 12537 125 280 1344 1646 47 78 11193 268 376 126 1378 250
internal_count=15252 56 15196 14916 280 112 168 733 87 14183 43 357 77 62 12537 125 280 1344 1646 47 78 11193 268 376 126 1378 250
is_linear=0
shrinkage=0.05


Tree=17
num_leaves=23
num_cat=0
split_feature=4 5 3 4 6 5 5 4 0 3 2 4 2 5 4 4 3 4 5 0 3 3
split_gain=1.90984e+09 4.39162e+08 3.70201e+08 5.9054e+07 5.88397e+07 5.67946e+07 8.61543e+07 5.08637e+07 3.36997e+07 3.24731e+07 2.56061e+07 2.57322e+07 1.98415e+07 1.42909e+07 5.54635e+06 5.26744e+06 6.30373e+06 3.55947e+06 2.33643e+06 2.32014e+06 1.36902e+06 961386
threshold=7544.9250000000002 8.5000000000000018 1927.4333333333334 430.64750000000009 2422.5000000000005 9.5000000000000018 11.500000000000002 2564.7783333333336 4047.1650000000004 169.00500000000002 3429.3900000000008 1509.9708333333335 2125.0150000000008 8.5000000000000018 4604.3516666666683 125.06933333333335 1.0000000180025095e-35 176.35166666666672 2.5000000000000004 1.0000000180025095e-35 -1.0000000180025095e-35 197.92333333333337
decision_type=2 2 2 2 2 2 2 2 2 2 8 2 10 2 2 2 2 2 2 2 2 2
left_child=2 -2 3 13 5 8 7 -7 12 -5 11 -11 -4 17 -10 20 -17 21 -12 -19 -15 -1
right_child=1 -3 4 9 -6 6 -8 -9 14 10 18 -13 -14 15 -16 16 -18 19 -20 -21 -22 -23
leaf_value=-5.6837275026883374 170.19744687080384 453.1382650772731 3.5397427594220199 52.60280483790806 114.71320227545662 72.671499375502265 3.7037033297798851 176.72415227475375 51.759225749969488 6.9326954797225033 1.2411718610412492 37.597542401154833 44.658247058806211 7.2241177241007497 86.515692580829977 10.925632473319135 -0.051356826187343496 -1.7759034798636664 -3.547834756831894 -4.5100165659426636 -3.0419391103896398 -0.52518515923748843
leaf_weight=4946 32 24 81 35 37 24 22 23 24 1373 412 72 46 33 22 141 1806 1247 667 2054 2039 92
leaf_count=4946 32 24 81 35 37 24 22 23 24 1373 412 72 46 33 22 141 1806 1247 667 2054 2039 92
internal_value=-4.65527e-08 291.458 -1.07407 -2.14137 55.99 47.0116 85.366 123.591 31.7142 4.77205 4.10878 8.46063 18.4331 -3.57295 68.3819 -1.12375 0.743587 -4.75335 -1.71922 -3.47717 -2.87844 -5.58953
internal_weight=15252 56 15196 14917 279 242 69 47 173 2559 2524 1445 127 12358 46 4019 1947 8339 1079 3301 2072 5038
internal_count=15252 56 15196 14917 279 242 69 47 173 2559 2524 1445 127 12358 46 4019 1947 8339 1079 3301 2072 5038
is_linear=0
shrinkage=0.05


Tree=18
num_leaves=23
num_cat=0
split_feature=4 3 6 4 6 1 2 1 2 1 4 4 6 3 2 6 2 2 4 6 1 4
split_gain=1.72363e+09 3.34106e+08 2.83289e+08 5.45823e+07 5.31028e+07 5.96829e+07 4.91716e+07 4.88892e+07 2.65448e+07 2.17091e+07 1.6111e+07 1.26281e+07 7.94583e+06 7.74069e+06 1.89419e+07 6.31104e+06 4.89099e+06 4.396e+06 6.91467e+06 2.16737e+06 2.53236e+06 2.10947e+06
threshold=7544.9250000000002 1927.4333333333334 1751.5000000000002 639.66500000000008 2422.5000000000005 34.70000000000001 -1.0000000180025095e-35 2795.3650000000002 3429.3900000000008 1464.2350000000004 1509.9708333333335 311.3991666666667 90.500000000000014 192.41166666666666 313.54500000000007 1638.5000000000002 -59.754999999999988 1359.3300000000002 103.14666666666668 58.500000000000007 1740.2700000000002 20.470833333333339
decision_type=2 2 2 2 2 8 10 10 8 10 2 2 2 2 10 2 10 8 2 2 10 2
left_child=1 3 -2 11 5 -3 15 -8 9 12 -11 17 -5 14 -13 -7 -15 18 -1 -10 -21 -19
right_child=2 4 -4 8 -6 6 7 -9 19 10 -12 13 -14 16 -16 -17 -18 21 -20 20 -22 -23
leaf_value=-4.6127620992257485 193.06357445187041 123.18230729536577 427.76330131530761 -16.096649222714561 108.97754060899891 14.719423206516954 21.371416409810386 81.574096294502169 -15.297460556030273 22.561924594807849 62.998301780223848 4.0003492413989958 11.197764635299315 -3.0610713912206111 56.437241611480715 -16.518578061190521 1.230657913994442 0.27847348938525562 -1.733391972386042 -0.42695476833745105 14.750103621647277 -6.0032259782930364
leaf_weight=4283 36 22 20 28 37 61 60 77 23 107 32 124 559 1164 20 22 1545 142 4063 526 29 2272
leaf_count=4283 36 22 20 28 37 61 60 77 23 107 32 124 559 1164 20 22 1545 142 4063 526 29 2272
internal_value=-2.05449e-08 -1.02037 276.885 -2.0343 53.1905 44.6611 36.8089 55.208 7.73792 14.1032 31.871 -2.97039 9.89582 -0.0129451 11.2833 6.43947 -0.613407 -3.75456 -3.21103 -0.257209 0.366081 -5.63371
internal_weight=15252 15196 56 14917 279 242 220 137 1304 726 139 13613 587 2853 144 83 2709 10760 8346 578 555 2414
internal_count=15252 15196 56 14917 279 242 220 137 1304 726 139 13613 587 2853 144 83 2709 10760 8346 578 555 2414
is_linear=0
shrinkage=0.05


Tree=19
num_leaves=26
num_cat=0
split_feature=4 5 3 4 6 5 5 4 0 2 5 2 6 0 2 2 4 4 3 4 4 5 0 3 6
split_gain=1.55558e+09 4.06578e+08 3.01531e+08 4.95359e+07 4.79253e+07 4.93596e+07 7.79394e+07 4.44998e+07 2.87898e+07 2.0494e+07 1.94826e+07 1.59834e+07 1.48822e+07 2.78691e+07 1.26601e+07 8.57132e+06 8.48235e+06 7.50998e+06 7.12148e+06 5.34837e+06 3.70778e+06 2.43377e+06 1.8317e+06 4.54375e+06 146456
threshold=7544.9250000000002 6.5000000000000009 1927.4333333333334 846.6450000000001 2422.5000000000005 9.5000000000000018 11.500000000000002 2564.7783333333336 4047.1650000000004 2999.9900000000007 10.500000000000002 2125.0150000000008 359.50000000000006 87.790000000000006 377.56000000000006 133.49000000000004 571.48250000000019 420.49500000000006 490.37250000000006 4604.3516666666683 176.35166666666672 11.500000000000002 1509.5500000000004 1263.6333333333334 947.50000000000011
decision_type=2 2 2 2 2 2 2 2 2 8 2 10 2 2 10 10 2 2 2 2 2 2 2 2 2
left_child=2 -2 3 10 5 8 7 -7 11 12 14 -4 15 -14 20 -5 -16 21 -19 -10 -1 -12 23 -11 -24
right_child=1 -3 4 9 -6 6 -8 -9 19 22 17 -13 13 -15 16 -17 -18 18 -20 -21 -22 -23 24 -25 -26
leaf_value=-4.6279339848032484 101.66394255264947 375.51533527952256 2.5242348659185718 -23.901440944671634 103.52866104229076 66.913120158513394 0.51234038092873313 164.23905941507093 45.73508701324463 -0.39833895892840332 2.270020165904993 39.42925314695939 58.348886645570104 17.163996680796615 -0.74822922011005122 10.080134644607703 9.0328895235696223 25.524923825668079 5.8540648979576018 79.865589107166642 -2.737605283725411 -2.54374986389921 -11.076068191528321 14.450294352289456 -5.2827168544133514
leaf_weight=6583 23 33 81 25 37 24 22 23 24 223 1025 46 49 254 1410 72 263 59 209 22 4281 353 20 67 24
leaf_count=6583 23 33 81 25 37 24 22 23 24 223 1025 46 49 254 1410 72 263 59 209 22 4281 353 20 67 24
internal_value=-2.38119e-08 263.041 -0.969352 -1.93259 50.531 42.428 78.1838 114.541 28.167 10.733 -2.58806 15.8914 18.3675 23.8243 -3.25953 1.322 0.789388 2.5263 10.1846 62.0584 -3.88304 1.03688 1.58992 3.03221 -7.91606
internal_weight=15252 56 15196 14917 279 242 69 47 173 734 14183 127 400 303 12537 97 1673 1646 268 46 10864 1378 334 290 44
internal_count=15252 56 15196 14917 279 242 69 47 173 734 14183 127 400 303 12537 97 1673 1646 268 46 10864 1378 334 290 44
is_linear=0
shrinkage=0.05


Tree=20
num_leaves=26
num_cat=0
split_feature=4 5 3 1 3 1 4 6 0 6 1 0 6 5 5 4 3 5 4 4 0 4 6 0 1
split_gain=1.40391e+09 3.66937e+08 2.72132e+08 4.58666e+07 4.44169e+07 3.12589e+07 2.89285e+07 3.36509e+07 2.3064e+07 3.03504e+07 2.08853e+07 1.93931e+07 3.33422e+07 1.80932e+07 1.37305e+07 8.96683e+06 1.67896e+07 7.46199e+06 6.82068e+06 6.29584e+06 4.95723e+06 3.33142e+06 2.88535e+06 2.50726e+06 1.50612e+06
threshold=7544.9250000000002 6.5000000000000009 1927.4333333333334 654.18500000000006 3788.8283333333343 16.055000000000003 1371.0000000000002 1672.5000000000002 2027.2850000000001 368.50000000000006 -1.0000000180025095e-35 6015.5750000000016 1313.5000000000002 6.5000000000000009 8.5000000000000018 354.1808333333334 192.41166666666666 7.5000000000000009 314.08000000000004 741.47166666666669 315.05000000000007 902.8375000000002 90.500000000000014 968.93000000000018 269.97500000000008
decision_type=2 2 2 10 2 10 2 2 2 2 10 2 2 2 2 2 2 2 2 2 2 2 2 2 10
left_child=2 -2 3 14 8 -6 17 23 13 -10 -11 12 -7 -4 18 22 -17 21 24 -19 -20 -5 -16 -8 -1
right_child=1 -3 4 6 5 11 7 -9 9 10 -12 -13 -14 -15 15 16 -18 19 20 -21 -22 -23 -24 -25 -26
leaf_value=-4.8291693784337593 96.580741815981668 356.73958407315342 -17.892995834350586 -0.37620174090839131 26.125243308327413 69.769975814819347 -0.50024878428532527 73.681066737455481 -5.1491825103759767 20.389346997491245 69.757408388649552 59.38124659856161 159.97575385684058 38.665426415663504 7.0355646192437353 46.174757806460065 3.5345999126805134 6.0291186474963849 3.304359250717722 17.838967311113112 -2.550338044925315 9.0030244798495858 -1.5342844382427796 20.403413021564486 -2.8910433009093586
leaf_weight=5986 23 33 31 515 22 20 26 34 24 29 82 24 21 26 101 24 606 415 461 155 1676 116 3566 32 1204
leaf_count=5986 23 33 31 515 22 20 26 34 24 29 82 24 21 26 101 24 606 415 461 155 1676 116 3566 32 1204
internal_value=-3.57942e-09 249.889 -0.920885 -1.83596 48.0044 77.6413 7.1638 34.1854 34.5752 45.8357 56.8594 95.0775 115.973 7.90558 -2.69009 -0.351525 5.15899 5.09386 -3.76748 9.24057 -1.28735 1.34803 -1.29825 11.0328 -4.50462
internal_weight=15252 56 15196 14917 279 87 1293 92 192 135 111 65 41 57 13624 4297 630 1201 9327 570 2137 631 3667 58 7190
internal_count=15252 56 15196 14917 279 87 1293 92 192 135 111 65 41 57 13624 4297 630 1201 9327 570 2137 631 3667 58 7190
is_linear=0
shrinkage=0.05


Tree=21
num_leaves=24
num_cat=0
split_feature=4 5 3 6 1 1 1 0 4 6 1 0 5 4 5 0 5 4 6 1 5 4 5
split_gain=1.26703e+09 3.40765e+08 2.45599e+08 4.18319e+07 5.28571e+07 4.13946e+07 3.58722e+07 3.69922e+07 2.61698e+07 2.1148e+07 2.42932e+07 1.40426e+07 1.2462e+07 8.67027e+06 6.17368e+06 5.26594e+06 4.96363e+06 4.94548e+06 8.50841e+06 3.2703e+06 2.87927e+06 2.5004e+06 2.39956e+06
threshold=7544.9250000000002 8.5000000000000018 1927.4333333333334 2422.5000000000005 34.70000000000001 654.18500000000006 2795.3650000000002 1376.1450000000002 1131.6308333333334 1740.5000000000002 1992.8650000000002 4619.7100000000009 10.500000000000002 314.08000000000004 3.5000000000000004 315.05000000000007 7.5000000000000009 656.35000000000014 854.50000000000011 1366.1700000000003 8.5000000000000018 902.8375000000002 11.500000000000002
decision_type=2 2 2 2 8 10 10 2 2 2 10 2 2 2 2 2 2 2 2 10 2 2 2
left_child=2 -2 5 4 -4 12 11 -8 16 14 -11 -6 13 20 -10 -15 21 22 -19 -18 -1 -7 -14
right_child=1 -3 3 -5 6 8 7 -9 9 10 -12 -13 17 15 -16 -17 19 18 -20 -21 -22 -23 -24
leaf_value=-4.279389698925935 130.57873554229738 379.81480471293133 111.92870108864525 95.118259347451712 5.2702437391558901 -0.35739167604631594 -5.3604546615055639 69.610739060138414 -9.9245063781738292 26.647081244864115 93.862673454284675 51.054085445404056 2.3539972325932137 3.743486038351481 18.418431240679269 -1.7115267368589855 5.7221558218132964 38.889250286420186 1.7278750279268555 15.955762895031979 -2.2611381532971775 9.3579573317577971 -2.3368197658666126
leaf_weight=7190 32 24 22 37 103 515 21 76 25 41 20 20 1052 565 83 2039 438 24 43 95 2343 76 368
leaf_count=7190 32 24 22 37 103 515 21 76 25 41 20 20 1052 565 83 2039 438 24 43 95 2343 76 368
internal_value=1.46561e-09 237.394 -0.87484 45.6042 38.0339 -1.74416 30.6444 53.3799 6.80561 25.1503 48.685 12.7148 -2.55559 -3.0849 11.8576 -0.527931 4.04738 1.76469 15.0394 7.54616 -3.78335 0.891959 1.13835
internal_weight=15252 56 15196 279 242 14917 220 97 1293 169 61 123 13624 12137 108 2604 1124 1487 67 533 9533 591 1420
internal_count=15252 56 15196 279 242 14917 220 97 1293 169 61 123 13624 12137 108 2604 1124 1487 67 533 9533 591 1420
is_linear=0
shrinkage=0.05


Tree=22
num_leaves=22
num_cat=0
split_feature=3 5 6 3 0 1 2 1 6 6 6 6 2 1 5 5 0 1 1 2 5
split_gain=1.01379e+09 4.38676e+08 3.78977e+08 3.08732e+08 1.61484e+08 6.73594e+07 3.1725e+07 3.80862e+07 3.1116e+07 3.19071e+07 4.33838e+07 2.46968e+07 1.7992e+07 1.2947e+07 1.14021e+07 8.19515e+06 8.17067e+06 1.0542e+07 6.30743e+06 1.97209e+06 1.95743e+06
threshold=5643.1566666666668 4.5000000000000009 1113.5000000000002 9729.6433333333352 2027.2850000000001 4397.920000000001 492.74500000000006 2795.3650000000002 359.50000000000006 890.50000000000011 690.50000000000011 2409.5000000000005 499.02500000000003 409.89500000000004 8.5000000000000018 10.500000000000002 968.93000000000018 3489.2850000000003 1642.2050000000002 1.0000000180025095e-35 1.5000000000000002
decision_type=2 2 2 2 2 10 10 10 2 2 2 2 10 10 2 2 2 10 10 8 2
left_child=4 -2 -3 -4 6 8 13 12 -6 10 -10 -11 -8 15 -14 20 17 -15 -18 -17 -1
right_child=1 2 3 -5 5 -7 7 -9 9 11 -12 -13 14 16 -16 19 18 -19 -20 -21 -22
leaf_value=-0.82189410260929641 0.73753104374326517 70.224437547766655 178.0003234267235 446.60675446883488 -11.028654255011144 114.57556708042439 50.02174028669085 71.827300489516489 36.559519462585449 15.758909339904784 128.87322768211365 73.580505856600681 0.32169406181155824 0.91357205720016799 9.2806918352842338 2.6568820157574002 8.4630956565108253 -31.161684109614448 37.859072269092906 -1.4758505565362432 -3.7630901884744556
leaf_weight=601 29 23 20 23 39 26 21 21 35 115 20 22 1023 1737 544 652 107 26 22 518 9628
leaf_count=601 29 23 20 23 39 26 21 21 35 115 20 22 1023 1737 544 652 107 26 22 518 9628
internal_value=-2.0431e-08 162.826 234.047 321.674 -1.02055 38.276 -1.69835 4.93264 29.6882 37.9588 70.1281 25.0441 4.04801 -2.5011 3.4319 -3.13687 1.32935 0.440539 13.4764 0.827176 -3.59028
internal_weight=15252 95 66 43 15157 257 14900 1609 231 192 55 137 1588 13291 1567 11399 1892 1763 129 1170 10229
internal_count=15252 95 66 43 15157 257 14900 1609 231 192 55 137 1588 13291 1567 11399 1892 1763 129 1170 10229
is_linear=0
shrinkage=0.05


Tree=23
num_leaves=23
num_cat=0
split_feature=4 5 3 4 3 4 1 1 6 1 6 1 5 6 1 5 4 1 0 6 4 4
split_gain=1.04625e+09 2.82194e+08 1.98593e+08 3.56547e+07 5.02266e+07 3.43094e+07 4.75792e+07 2.22369e+07 1.73261e+07 2.03442e+07 1.68232e+07 1.27887e+07 1.19992e+07 9.15491e+06 3.2042e+07 7.67895e+06 6.38732e+06 4.45904e+06 3.50294e+06 2.60149e+06 1.59312e+06 951586
threshold=7544.9250000000002 8.5000000000000018 1927.4333333333334 597.30750000000012 209.30333333333337 3311.2658333333343 -1.0000000180025095e-35 3074.4500000000003 1235.5000000000002 1740.2700000000002 1763.5000000000002 60.550000000000011 8.5000000000000018 1313.5000000000002 4397.920000000001 6.5000000000000009 298.57250000000005 269.97500000000008 129.48500000000004 164.50000000000003 524.55266666666682 87.40633333333335
decision_type=2 2 2 2 2 2 10 10 2 8 2 10 2 2 10 2 2 10 2 2 2 2
left_child=2 -2 3 12 -5 8 -7 11 15 -10 -11 -6 17 -8 -15 -4 19 21 -18 -14 -19 -1
right_child=1 -3 5 4 7 6 13 -9 9 10 -12 -13 16 14 -16 -17 18 20 -20 -21 -22 -23
leaf_value=-4.7838064228128898 118.51894168853761 345.32636082967127 -8.6310758209228506 82.574203999837252 -1.6519084599150009 2.0985173950195315 99.711094686720116 48.819305569784987 79.409708953857432 58.479441565054437 8.7601312036099639 7.9160672141496677 4.9348748485905585 25.235638046264651 106.11767819213867 24.258994272020132 9.2934405015351693 -1.7769975640622506 1.8343592909148894 -1.4790155888726959 3.723661514334645 -3.577296201656246
leaf_weight=2612 32 24 35 21 610 25 36 28 25 27 46 817 166 24 25 36 208 1981 647 3320 141 4366
leaf_count=2612 32 24 35 21 610 25 36 28 25 27 46 817 166 24 25 36 208 1981 647 3320 141 4366
internal_value=-7.73709e-09 215.722 -0.794975 -1.57669 5.79997 41.0002 62.7333 4.69189 26.8544 40.4812 27.1495 3.82604 -2.38675 80.567 66.502 8.04558 -0.223745 -3.41857 3.64897 -1.17359 -1.4115 -4.02892
internal_weight=15252 56 15196 14917 1476 279 110 1455 169 98 73 1427 13441 85 49 71 4341 9100 855 3486 2122 6978
internal_count=15252 56 15196 14917 1476 279 110 1455 169 98 73 1427 13441 85 49 71 4341 9100 855 3486 2122 6978
is_linear=0
shrinkage=0.05


Tree=24
num_leaves=24
num_cat=0
split_feature=4 5 3 2 2 0 0 4 0 2 5 6 0 2 0 2 4 4 3 4 6 6 5
split_gain=9.44239e+08 2.55267e+08 1.7923e+08 3.75272e+07 4.35586e+07 3.59332e+07 4.28851e+07 3.29735e+07 2.26502e+07 1.45217e+07 1.28916e+07 1.24184e+07 2.39862e+07 9.05706e+06 8.38023e+06 8.29343e+06 6.55415e+06 5.83838e+06 6.7725e+06 2.25642e+06 1.57014e+06 2.90015e+06 928219
threshold=7544.9250000000002 6.5000000000000009 1927.4333333333334 2125.0150000000008 5983.1850000000004 2396.3150000000001 4619.7100000000009 846.6450000000001 1870.7100000000003 2999.9900000000007 10.500000000000002 359.50000000000006 87.790000000000006 377.56000000000006 165.92000000000004 2800.8200000000002 571.48250000000019 222.1141666666667 104.71000000000002 103.14666666666668 2546.5000000000005 2322.5000000000005 11.500000000000002
decision_type=2 2 2 8 10 2 2 2 2 8 2 2 2 10 2 8 2 2 2 2 2 2 2
left_child=2 -2 7 5 8 -4 -7 10 -5 11 13 14 -13 19 -9 -10 -15 22 -19 -1 21 -11 -12
right_child=1 -3 3 4 -6 6 -8 9 15 20 17 12 -14 16 -16 -17 -18 18 -20 -21 -22 -23 -24
leaf_value=-3.9878390513098512 77.066781218155583 294.05700461647729 17.886800221034459 -22.851564704047309 83.528888973113041 142.75408115386963 44.914638255891347 -29.145089302062992 -2.442868332635789 0.76977929906226672 0.49798307360234145 52.276208028987959 14.067936672375897 -0.50581535167833591 7.1814072067087356 31.351236891746524 8.0920127582640706 34.399311420917513 4.8559180128568604 -2.517255054760891 -12.095873532976423 20.448815670013431 -3.2014844109705827
leaf_weight=4351 23 33 21 27 31 24 21 20 21 293 763 49 254 1410 77 134 263 20 645 6513 21 20 218
leaf_count=4351 23 33 21 27 31 24 21 20 21 293 763 49 254 1410 77 134 263 20 645 6513 21 20 218
internal_value=-1.75337e-08 204.936 -0.755226 38.9502 28.7426 71.8929 97.0957 -1.49786 19.4108 8.83565 -2.03264 15.2621 20.2468 -2.57884 -0.308592 26.7727 0.845786 2.12764 5.74444 -3.10622 1.13925 2.02723 -0.324121
internal_weight=15252 56 15196 279 213 66 45 14917 182 734 14183 400 303 12537 97 155 1673 1646 665 10864 334 313 981
internal_count=15252 56 15196 279 213 66 45 14917 182 734 14183 400 303 12537 97 155 1673 1646 665 10864 334 313 981
is_linear=0
shrinkage=0.05


Tree=25
num_leaves=26
num_cat=0
split_feature=4 0 4 1 6 0 0 0 0 4 1 2 0 4 5 5 5 1 2 1 1 6 4 2 4
split_gain=8.52176e+08 2.56825e+08 1.6049e+08 5.56418e+07 4.4319e+07 4.35983e+07 3.5531e+07 3.53196e+07 5.99286e+07 2.04814e+07 1.60368e+07 1.53733e+07 1.35977e+07 1.19708e+07 8.13415e+06 6.02741e+06 5.55034e+06 4.18042e+06 3.2121e+06 2.85613e+06 2.76389e+06 2.07863e+06 1.43909e+06 1.38034e+06 741945
threshold=7544.9250000000002 17729.485000000004 1371.0000000000002 3074.4500000000003 1243.5000000000002 6015.5750000000016 315.05000000000007 4619.7100000000009 2396.3150000000001 430.64750000000009 1464.2350000000004 67.595000000000013 2396.3150000000001 3311.2658333333343 9.5000000000000018 7.5000000000000009 10.500000000000002 348.34500000000008 661.80500000000018 570.41500000000008 360.02500000000003 58.500000000000007 349.73250000000002 314.69500000000005 300.99750000000006
decision_type=2 2 2 10 2 2 2 2 2 2 10 10 2 2 2 2 2 8 10 10 10 2 2 10 2
left_child=2 -2 9 5 13 6 -4 8 -6 14 -8 16 15 -5 19 -13 21 -18 20 23 -16 -11 -21 -1 -20
right_child=1 -3 3 4 7 -7 10 -9 -10 11 -12 12 -14 -15 18 -17 17 -19 24 22 -22 -23 -24 -25 -26
leaf_value=-3.5293569838780261 290.84678797568046 75.45383349609375 67.230679928814922 -4.0588538589477539 60.4538737654686 80.027097144493695 -0.74333103696505232 28.161543759432703 169.15655194237121 -12.101423934936525 25.901809546351434 2.4078627429874437 44.23876802126567 45.923744438005535 -0.94670078778851807 9.9450255483276653 29.7444495010376 4.9278281062841423 4.9128441319321148 3.6487566037659058 3.6944018449728691 -1.6822682285749371 -2.5371366700530054 -1.7899601409134787 15.099530016458951
leaf_weight=7973 31 25 27 25 32 26 192 22 21 50 80 530 24 23 2219 531 20 112 33 228 375 1123 160 1331 39
leaf_count=7973 31 25 27 25 32 26 192 22 21 50 80 530 24 23 2219 531 20 112 33 228 375 1123 160 1331 39
internal_value=-1.01742e-08 194.689 -0.717465 28.7645 57.4076 17.9242 12.5239 81.4182 103.525 -1.61304 7.09348 2.62396 7.02185 19.8911 -2.43246 6.18 -1.03253 8.68792 0.0133823 -3.10524 -0.275763 -2.12639 1.09787 -3.28052 10.4306
internal_weight=15252 56 15196 448 123 325 299 75 53 14748 272 2390 1085 48 12358 1061 1305 132 2666 9692 2594 1173 388 9304 72
internal_count=15252 56 15196 448 123 325 299 75 53 14748 272 2390 1085 48 12358 1061 1305 132 2666 9692 2594 1173 388 9304 72
is_linear=0
shrinkage=0.05


Tree=26
num_leaves=25
num_cat=0
split_feature=4 6 3 2 2 4 1 4 6 3 1 5 2 5 3 2 4 4 3 1 3 6 1 1
split_gain=7.69089e+08 2.47588e+08 1.45851e+08 3.25223e+07 3.84047e+07 2.81231e+07 2.75959e+07 1.94419e+07 2.63442e+07 9.0817e+06 2.22541e+07 9.58146e+06 8.79372e+06 8.3912e+06 7.37426e+06 5.52557e+06 4.40596e+06 4.21783e+06 1.72177e+07 4.15429e+06 3.68498e+06 2.11475e+06 2.06751e+06 1.05554e+06
threshold=7544.9250000000002 1751.5000000000002 1927.4333333333334 2125.0150000000008 5983.1850000000004 2564.7783333333336 654.18500000000006 1371.0000000000002 1672.5000000000002 3108.4700000000007 16794.210000000003 4.5000000000000009 323.36500000000007 8.5000000000000018 -1.0000000180025095e-35 685.2850000000002 141.8741666666667 597.30750000000012 277.63500000000005 1464.2350000000004 277.63500000000005 970.50000000000011 269.97500000000008 2336.1550000000002
decision_type=2 2 2 8 10 2 10 2 2 2 8 2 10 2 2 10 2 2 2 10 2 2 10 10
left_child=2 -2 6 5 9 23 13 12 21 11 -11 -5 20 17 16 -16 -15 22 -19 -14 -8 -9 -1 -4
right_child=1 -3 3 4 -6 -7 7 8 -10 10 -12 -13 19 14 15 -17 -18 18 -20 -21 -22 -23 -24 -25
leaf_value=-3.5246208852919887 106.59299418131512 326.00591461181642 51.208097133636478 21.749198179659636 77.07674484868204 111.96130128340288 11.250588654233264 0.36974159039949117 62.727144704145545 44.524455763801697 -9.0486107962472104 -10.701291313171389 7.8170963389532906 7.2208160652833833 -0.85149211514548095 7.1173766975817472 36.796357123851777 46.750469636917117 -0.39959269505258055 22.159431356494711 -0.26143682988373551 20.456336143016816 -1.5901088289237224 35.65510892868042
leaf_weight=6978 36 20 20 46 31 22 77 38 34 63 28 45 350 34 4013 230 20 20 607 59 715 20 1722 24
leaf_count=6978 36 20 20 46 31 22 77 38 34 63 28 45 350 34 4013 230 20 20 607 59 715 20 1722 24
internal_value=-4.47085e-08 184.955 -0.681592 35.1362 25.6336 65.8035 -1.35151 5.62928 27.7815 16.8713 28.0404 5.70225 3.93235 -2.01403 -0.185852 -0.419524 18.1747 -2.85628 1.1044 9.88604 0.857788 7.29615 -3.14172 42.7246
internal_weight=15252 56 15196 279 213 66 14917 1293 92 182 91 91 1201 13624 4297 4243 54 9327 627 409 792 58 8700 44
internal_count=15252 56 15196 279 213 66 14917 1293 92 182 91 91 1201 13624 4297 4243 54 9327 627 409 792 58 8700 44
is_linear=0
shrinkage=0.05


Tree=27
num_leaves=22
num_cat=0
split_feature=4 5 3 2 2 0 0 4 1 0 5 5 1 0 2 4 4 5 1 1 2
split_gain=6.94103e+08 2.38101e+08 1.31631e+08 2.93513e+07 3.46602e+07 3.11251e+07 3.78807e+07 2.51902e+07 2.2795e+07 2.01398e+07 1.01101e+07 1.00488e+07 9.72531e+06 7.09816e+06 7.04361e+06 5.12886e+06 4.63597e+06 6.29684e+06 3.04106e+06 2.37802e+06 914780
threshold=7544.9250000000002 8.5000000000000018 1927.4333333333334 2125.0150000000008 5983.1850000000004 2396.3150000000001 4619.7100000000009 846.6450000000001 3074.4500000000003 1870.7100000000003 4.5000000000000009 10.500000000000002 16.055000000000003 596.33000000000004 377.56000000000006 571.48250000000019 222.1141666666667 11.500000000000002 305.44000000000011 263.43500000000006 -5.6999999999999993
decision_type=2 2 2 8 10 2 2 2 10 2 2 2 10 2 10 2 2 2 10 8 10
left_child=2 -2 7 5 9 -4 -7 11 10 -5 19 14 -11 -12 18 -16 20 -18 -1 -9 -13
right_child=1 -3 3 4 -6 6 -8 8 -10 12 13 16 -14 -15 15 -17 17 -19 -20 -21 -22
leaf_value=-3.1102151865330838 86.420246887207043 294.75603879292811 12.25016626385699 -23.823873576411497 73.222908801417205 128.88132677078247 36.92743671962193 -18.254328727722168 54.671988586425783 8.9873144287993938 21.905873542856948 -5.1269009317864072 34.188084227539768 7.1345800760342222 -0.40915915793349555 7.1965719829947323 8.6707009561018111 -1.5688578718667241 -0.99824602277030017 -0.31783255922450943 0.21623076016264828
leaf_weight=8747 32 24 21 27 31 24 21 20 25 69 107 88 86 339 1410 263 436 229 2117 243 893
leaf_count=8747 32 24 21 27 31 24 21 20 25 69 107 88 86 339 1410 263 436 229 2117 243 893
internal_value=-1.91353e-08 175.707 -0.647512 33.3794 24.352 62.5134 85.9695 -1.28393 7.748 16.0278 6.09341 -1.75136 22.9697 10.6784 -2.23359 0.786482 1.92168 5.1446 -2.69867 -1.68182 -0.263072
internal_weight=15252 56 15196 279 213 66 45 14917 734 182 709 14183 155 446 12537 1673 1646 665 10864 263 981
internal_count=15252 56 15196 279 213 66 45 14917 734 182 709 14183 155 446 12537 1673 1646 665 10864 263 981
is_linear=0
shrinkage=0.05


Tree=28
num_leaves=15
num_cat=0
split_feature=1 5 2 1 0 6 1 2 6 6 0 2 0 5
split_gain=5.94004e+08 2.36407e+08 1.84587e+08 9.05187e+07 3.41063e+07 2.8169e+07 2.09726e+07 2.05062e+07 1.95756e+07 1.84078e+07 1.10009e+07 9.2264e+06 8.17156e+06 7.621e+06
threshold=7930.0350000000008 8.5000000000000018 5983.1850000000004 3074.4500000000003 1376.1450000000002 1740.5000000000002 784.42000000000019 2999.9900000000007 1313.5000000000002 2612.5000000000005 6015.5750000000016 3954.4600000000005 224.58000000000004 8.5000000000000018
decision_type=10 2 10 10 2 2 10 8 2 2 2 8 2 2
left_child=2 -2 3 6 8 7 10 -6 -5 11 13 -8 -11 -1
right_child=1 -3 -4 4 5 -7 9 -9 -10 12 -12 -13 -14 -15
leaf_value=-2.5124507237547151 58.893933741251629 276.51098955594574 108.07176930354193 -25.2649619057065 124.39282740638369 17.989307185581751 7.740477305902111 57.96265313258538 41.504879528543228 16.574395117759703 33.66314697265625 -3.2651780028768638 61.772731399536134 -0.0095216402956976743
leaf_weight=9621 24 26 39 21 21 21 652 26 23 20 22 269 20 4447
leaf_count=9621 24 26 39 21 21 21 652 26 23 20 22 269 20 4447
internal_value=-5.58107e-09 172.055 -0.565895 -0.845317 43.9384 66.1331 -1.17857 87.6442 9.63746 5.96816 -1.66601 4.52601 39.1736 -1.72126
internal_weight=15252 50 15202 15163 112 68 15051 47 44 961 14090 921 40 14068
internal_count=15252 50 15202 15163 112 68 15051 47 44 961 14090 921 40 14068
is_linear=0
shrinkage=0.05


Tree=29
num_leaves=24
num_cat=0
split_feature=4 0 0 6 6 6 4 3 0 2 3 4 2 2 5 3 0 2 6 5 4 4 6
split_gain=5.7709e+08 2.34665e+08 1.08614e+08 5.00754e+07 2.46906e+07 2.49059e+07 2.11223e+07 2.0831e+07 1.42743e+07 3.24758e+07 5.84357e+07 1.58244e+07 9.75175e+06 8.48937e+06 8.39854e+06 7.57182e+06 6.98956e+06 6.50896e+06 6.2005e+06 4.03726e+06 6.39846e+06 1.64846e+06 263452
threshold=7544.9250000000002 17729.485000000004 2027.2850000000001 2422.5000000000005 2125.5000000000005 368.50000000000006 846.6450000000001 2542.5516666666672 596.33000000000004 1019.6150000000001 1584.6100000000001 1663.7112500000001 2528.0400000000004 704.41500000000008 10.500000000000002 785.76333333333343 1870.7100000000003 377.56000000000006 376.50000000000006 11.500000000000002 222.1141666666667 103.14666666666668 115.50000000000001
decision_type=2 2 2 2 2 2 2 2 2 10 2 2 8 8 2 2 2 10 2 2 2 2 2
left_child=2 -2 6 4 5 12 14 -7 9 11 -11 -8 -4 15 17 -10 -15 21 -19 20 -16 -1 -21
right_child=1 -3 3 -5 -6 7 8 -9 13 10 -12 -13 -14 16 19 -17 -18 18 -20 22 -22 -23 -24
leaf_value=-3.2525609752056699 252.12923938382056 46.238039611816411 -25.602459696064827 87.697620594140261 -21.184258918104504 17.431278096813045 10.827100307742755 52.869488395253818 -8.0042754945300878 15.655998588908801 110.5658447265625 -36.187004284425221 16.077008697721691 -1.3790895723337415 0.52664123968871834 26.879818991025292 22.488928948026714 7.4586146187863669 -0.5515411648712647 -7.7699017524719238 8.1589354913586227 -1.9951830715321461 -2.0329148299273325
leaf_weight=4351 31 25 23 33 29 73 96 96 21 55 23 22 36 435 763 60 33 293 1377 21 429 6502 425
leaf_count=4351 31 25 23 33 29 73 96 96 21 55 23 22 36 435 763 60 33 293 1377 21 429 6502 425
internal_value=-9.29139e-09 160.214 -0.590416 29.7157 22.2705 27.7977 -1.18003 37.5619 7.02592 18.6091 43.6422 2.06176 -0.17092 2.89058 -1.61174 17.8358 0.303912 -2.05212 0.853833 1.7551 3.2735 -2.49927 -2.30304
internal_weight=15252 56 15196 290 257 228 14906 169 745 196 78 118 59 549 14161 81 468 12523 1670 1638 1192 10853 446
internal_count=15252 56 15196 290 257 228 14906 169 745 196 78 118 59 549 14161 81 468 12523 1670 1638 1192 10853 446
is_linear=0
shrinkage=0.05


Tree=30
num_leaves=25
num_cat=0
split_feature=4 6 0 6 1 0 0 6 4 0 2 6 1 1 2 1 5 2 2 6 5 4 1 0
split_gain=5.20824e+08 2.24688e+08 9.80242e+07 4.5193e+07 2.4184e+07 6.12328e+07 2.70169e+07 3.7855e+07 1.90629e+07 1.28826e+07 2.93094e+07 4.46615e+07 1.51995e+07 1.02859e+07 7.66166e+06 1.16479e+07 7.57968e+06 5.9798e+06 5.87434e+06 5.59596e+06 3.64363e+06 6.02958e+06 2.44216e+06 260042
threshold=7544.9250000000002 1751.5000000000002 2027.2850000000001 2422.5000000000005 2795.3650000000002 6015.5750000000016 4619.7100000000009 1243.5000000000002 846.6450000000001 596.33000000000004 1019.6150000000001 2047.5000000000002 3489.2850000000003 88.40000000000002 704.41500000000008 2523.5900000000006 10.500000000000002 387.44500000000011 377.56000000000006 376.50000000000006 11.500000000000002 430.64750000000009 295.35500000000008 119.52000000000002
decision_type=2 2 2 2 10 2 2 2 2 2 10 2 10 10 8 10 2 10 10 2 2 2 10 2
left_child=2 -2 8 4 5 13 7 -6 16 10 12 -12 -10 -4 17 -16 18 -11 22 -20 21 -18 -1 -22
right_child=1 -3 3 -5 6 -7 -8 -9 9 14 11 -13 -14 -15 15 -17 20 -19 19 -21 23 -23 -24 -25
leaf_value=-2.7609959692178729 77.552876451280383 286.57281074523928 -10.441947906157552 83.312741116321448 25.742976020730062 92.33449016752698 4.9677603950500497 118.59349852062408 10.549195751547813 4.7929002083672421 17.746012122290477 101.82331519993869 -35.527255530790846 14.379820658520956 1.9553747855392949 -37.044435653686527 1.6844390769032971 32.132885587877695 7.0856838865491731 -0.52396407321896266 -0.67838678959457355 11.981764314364305 -0.91951051755494051 -3.1535279399770149
leaf_weight=8574 36 20 85 33 23 21 25 21 96 45 56 22 22 82 448 20 1027 36 293 1377 174 165 2279 272
leaf_count=8574 36 20 85 33 23 21 25 21 96 45 56 22 22 82 448 20 1027 36 293 1377 174 165 2279 272
internal_value=4.03237e-08 152.203 -0.560895 28.2299 21.157 11.8649 46.4746 70.058 -1.12103 6.67463 17.6786 41.4601 1.95867 1.74599 2.74605 0.288716 -1.53115 16.944 -1.94951 0.811142 1.66735 3.10982 -2.37431 -2.18789
internal_weight=15252 56 15196 290 257 188 69 44 14906 745 196 78 118 167 549 468 14161 81 12523 1670 1638 1192 10853 446
internal_count=15252 56 15196 290 257 188 69 44 14906 745 196 78 118 167 549 468 14161 81 12523 1670 1638 1192 10853 446
is_linear=0
shrinkage=0.05


Tree=31
num_leaves=15
num_cat=0
split_feature=1 5 2 1 0 6 2 6 2 0 2 3 3 3
split_gain=4.57299e+08 2.15154e+08 1.40686e+08 7.18076e+07 2.47921e+07 2.74636e+07 1.72432e+07 1.6776e+07 1.60062e+07 1.93716e+07 2.83146e+07 1.76471e+07 9.56747e+06 7.75424e+06
threshold=7930.0350000000008 8.5000000000000018 5983.1850000000004 3074.4500000000003 1376.1450000000002 1740.5000000000002 2999.9900000000007 1313.5000000000002 1004.6900000000002 2396.3150000000001 2017.9800000000002 3108.4700000000007 1927.4333333333334 1927.4333333333334
decision_type=10 2 10 10 2 2 8 2 10 2 10 2 2 2
left_child=2 -2 3 8 7 6 -6 -5 11 13 -11 12 -1 -10
right_child=1 -3 -4 4 5 -7 -8 -9 9 10 -12 -13 -14 -15
leaf_value=-1.3423564984608072 43.008925501505537 250.613915513112 94.346428856482873 -22.407987140473864 113.00822047278994 10.532749684651693 52.09223406865047 39.403180860436485 5.4185591752492783 74.796924206972122 5.9158603204263223 -35.381766469855059 19.743128684714989 -24.331835796522057
leaf_weight=14415 24 26 39 21 21 21 26 23 459 25 37 38 54 23
leaf_count=14415 24 26 39 21 21 21 26 23 459 25 37 38 54 23
internal_value=-6.38157e-09 150.964 -0.496525 -0.740466 39.147 58.07 79.31 9.9024 -1.03728 7.3829 33.6905 -1.35303 -1.26366 3.99893
internal_weight=15252 50 15202 15163 112 68 47 44 15051 544 62 14507 14469 482
internal_count=15252 50 15202 15163 112 68 47 44 15051 544 62 14507 14469 482
is_linear=0
shrinkage=0.05


Tree=32
num_leaves=16
num_cat=0
split_feature=1 5 2 1 0 6 1 2 6 2 0 5 5 0 3
split_gain=4.12712e+08 1.94177e+08 1.26969e+08 6.48064e+07 2.23749e+07 2.47859e+07 1.56486e+07 1.5562e+07 1.51403e+07 1.47396e+07 1.62888e+07 7.20385e+06 6.18548e+06 3.55019e+07 3.02996e+07
threshold=7930.0350000000008 8.5000000000000018 5983.1850000000004 3074.4500000000003 1376.1450000000002 1740.5000000000002 409.89500000000004 2999.9900000000007 1313.5000000000002 1574.7850000000001 2396.3150000000001 8.5000000000000018 9.5000000000000018 2396.3150000000001 3788.8283333333343
decision_type=10 2 10 10 2 2 10 8 2 10 2 2 2 2 2
left_child=2 -2 3 6 8 7 12 -6 -5 11 -11 -8 14 -14 -1
right_child=1 -3 -4 4 5 -7 9 -9 -10 10 -12 -13 13 -15 -16
leaf_value=-2.1461905062950954 40.858471934000654 238.08321682856632 89.62910653138772 -21.287587338402162 107.35781146458217 10.00611277988979 -0.19846638808184117 49.487623255069444 37.433024962052052 8.0880276893314562 50.61300059258938 5.5466457942291783 -0.066801222576274688 65.206942876180022 -60.889566178755331
leaf_weight=9906 24 26 39 21 21 21 1564 26 23 76 32 838 2592 21 22
leaf_count=9906 24 26 39 21 21 21 1564 26 23 76 32 838 2592 21 22
internal_value=1.70873e-08 143.415 -0.471699 -0.703443 37.1897 55.1665 -0.985419 75.3445 9.40728 2.61832 20.688 1.80587 -1.70668 0.457787 -2.27636
internal_weight=15252 50 15202 15163 112 68 15051 47 44 2510 108 2402 12541 2613 9928
internal_count=15252 50 15202 15163 112 68 15051 47 44 2510 108 2402 12541 2613 9928
is_linear=0
shrinkage=0.05


Tree=33
num_leaves=21
num_cat=0
split_feature=4 0 4 4 1 2 6 0 0 6 1 2 6 5 2 2 4 5 4 2
split_gain=4.02888e+08 2.10472e+08 7.29072e+07 2.91074e+07 2.15826e+07 2.95327e+07 1.73866e+07 2.2486e+07 1.6338e+07 1.37728e+07 8.99683e+06 7.59513e+06 7.16408e+06 6.31636e+06 4.92219e+06 4.30575e+06 4.12001e+06 3.59494e+06 2.40041e+06 1.99368e+06
threshold=7544.9250000000002 17729.485000000004 3311.2658333333343 1131.6308333333334 -1.0000000180025095e-35 1899.6700000000003 1672.5000000000002 179.15000000000006 1870.7100000000003 1626.5000000000002 409.89500000000004 1899.6700000000003 1167.5000000000002 1.5000000000000002 1060.1000000000001 927.61500000000012 724.02416666666682 8.5000000000000018 597.30750000000012 445.66500000000002
decision_type=2 2 2 2 10 10 2 2 2 2 10 8 2 2 10 8 2 2 2 10
left_child=2 -2 3 10 -4 -6 11 -8 -9 -7 17 12 -5 -13 15 -12 -16 18 -1 -19
right_child=1 -3 4 6 5 9 7 8 -10 -11 14 13 -14 -15 16 -17 -18 19 -20 -21
leaf_value=-2.5086276930156672 220.91453640845518 25.925318054199224 -1.24650341796875 22.195480812191963 103.10904669988723 54.638543213668619 71.790595063709077 2.7414182362349138 34.068791600277549 8.4236341748918804 2.7261046615792002 17.921843545577104 -7.190361227308002 -5.6517748581880785 -1.6993873820585366 -2.0241283240282208 19.670536868251972 -0.84958507619868406 1.3649280943383513 2.9590298977062068
leaf_weight=7999 31 25 25 80 21 38 21 92 76 28 1471 34 28 173 34 706 67 3501 421 381
leaf_count=7999 31 25 25 80 21 38 21 92 76 28 1471 34 28 173 34 706 67 3501 421 381
internal_value=-3.27296e-08 133.866 -0.49332 -0.791749 39.6987 51.4646 11.0217 23.0108 16.9133 35.0322 -1.20011 3.82823 14.5769 -1.77978 1.68622 1.18561 12.4767 -1.73459 -2.31495 -0.475787
internal_weight=15252 56 15196 15084 112 87 504 189 168 66 14580 315 108 207 2278 2177 101 12302 8420 3882
internal_count=15252 56 15196 15084 112 87 504 189 168 66 14580 315 108 207 2278 2177 101 12302 8420 3882
is_linear=0
shrinkage=0.05


Tree=34
num_leaves=19
num_cat=0
split_feature=4 6 4 4 5 5 4 2 2 0 2 4 4 5 6 5 4 0
split_gain=3.63607e+08 2.04951e+08 6.57987e+07 2.62694e+07 1.6122e+07 2.9657e+07 3.19501e+07 1.83704e+07 1.37413e+07 1.90173e+07 8.24584e+06 6.26546e+06 1.18924e+07 5.19063e+06 3.08083e+06 2.81661e+06 2.72631e+06 2.50087e+06
threshold=7544.9250000000002 1751.5000000000002 3311.2658333333343 1131.6308333333334 11.500000000000002 9.5000000000000018 2129.6616666666673 3429.3900000000008 3954.4600000000005 4619.7100000000009 454.03000000000003 597.30750000000012 611.41750000000013 10.500000000000002 832.50000000000011 8.5000000000000018 216.63541666666669 2027.2850000000001
decision_type=2 2 2 2 2 2 2 10 8 2 10 2 2 2 2 2 2 2
left_child=2 -2 3 10 5 7 -7 -5 -4 14 13 15 -13 17 -10 -12 -15 -1
right_child=1 -3 8 4 -6 6 -8 -9 9 -11 11 12 -14 16 -16 -17 -18 -19
leaf_value=-1.9508875672908204 55.876631842719192 255.50503921508789 62.648471074490935 9.7639500934278391 -22.778058633383583 22.336433063613043 92.428987605231157 -32.328862925938203 18.772633690834045 55.408341881536671 -1.3497397171430494 45.043618717193603 5.5540723515491868 -0.38647043114739499 -7.798484134674073 3.7487885694987342 4.1138298049132516 15.745288085937501
leaf_weight=11464 36 20 37 349 34 72 21 28 20 31 806 20 408 925 24 408 529 20
leaf_count=11464 36 20 37 349 34 72 21 28 20 31 806 20 408 925 24 408 529 20
internal_value=-7.39958e-09 127.172 -0.468654 -0.752161 10.4706 12.8758 38.1638 6.63769 37.7138 25.4126 -1.14011 2.19765 7.39938 -1.56371 4.2793 0.363769 1.25085 -1.92007
internal_weight=15252 56 15196 15084 504 470 93 377 112 75 14580 1642 428 12938 44 1214 1454 11484
internal_count=15252 56 15196 15084 504 470 93 377 112 75 14580 1642 428 12938 44 1214 1454 11484
is_linear=0
shrinkage=0.05


Tree=35
num_leaves=19
num_cat=0
split_feature=4 5 4 4 1 2 2 1 6 2 1 1 2 4 2 2 3 3
split_gain=3.28155e+08 1.89533e+08 5.93834e+07 2.37081e+07 1.91402e+07 2.63043e+07 1.56246e+07 1.3295e+07 1.19422e+07 9.40543e+06 7.74649e+06 6.71639e+06 4.14935e+06 3.79792e+06 3.78112e+06 3.10066e+06 1.37557e+07 2.60676e+06
threshold=7544.9250000000002 6.5000000000000009 3311.2658333333343 1131.6308333333334 -1.0000000180025095e-35 1899.6700000000003 168.01000000000002 3489.2850000000003 1740.5000000000002 1899.6700000000003 409.89500000000004 79.90000000000002 1060.1000000000001 724.02416666666682 927.61500000000012 492.74500000000006 171.0925 23.870000000000001
decision_type=2 2 2 2 10 10 8 10 2 10 10 8 10 2 8 10 2 2
left_child=2 -2 3 10 -4 -6 -5 -7 11 -10 15 -8 14 -14 -12 17 -17 -1
right_child=1 -3 4 6 5 7 8 -9 9 -11 12 -13 13 -15 -16 16 -18 -19
leaf_value=-0.60077821072278914 10.631738811990489 197.60747745398319 -2.7307075195312502 40.345625236706859 95.64827800932386 5.2569933346339637 -23.285297470092775 50.66321159287503 10.884351426312048 37.78220431857639 2.5791324586663866 3.7709128271761561 -2.10829571836135 18.409306543442742 -1.8723084366228695 36.984042626160843 0.13242164276570942 -2.2897453989059859
leaf_weight=3178 23 33 25 39 21 28 25 38 117 45 1471 278 34 67 706 26 972 8126
leaf_count=3178 23 33 25 39 21 28 25 38 117 45 1471 278 34 67 706 26 972 8126
internal_value=2.07859e-09 120.814 -0.445221 -0.714553 35.8281 46.9082 9.94708 31.4 7.39753 18.356 -1.0831 1.53855 1.59517 11.5024 1.13553 -1.57905 1.09248 -1.81491
internal_weight=15252 56 15196 15084 112 87 504 66 465 162 14580 303 2278 101 2177 12302 998 11304
internal_count=15252 56 15196 15084 112 87 504 66 465 162 14580 303 2278 101 2177 12302 998 11304
is_linear=0
shrinkage=0.05


Tree=36
num_leaves=15
num_cat=0
split_feature=1 5 2 1 0 6 2 6 1 2 2 0 3 3
split_gain=2.89097e+08 1.70346e+08 9.29347e+07 4.40303e+07 1.70279e+07 2.18004e+07 1.4508e+07 1.29434e+07 1.09244e+07 1.04179e+07 1.71934e+07 6.81756e+06 5.79755e+06 8.64165e+06
threshold=7930.0350000000008 8.5000000000000018 5983.1850000000004 3074.4500000000003 1376.1450000000002 1740.5000000000002 2999.9900000000007 1313.5000000000002 550.20500000000004 1574.7850000000001 2017.9800000000002 2889.3000000000006 3108.4700000000007 1927.4333333333334
decision_type=10 2 10 10 2 2 8 2 10 10 8 2 2 2
left_child=2 -2 3 8 7 6 -6 -5 12 11 -11 -10 13 -1
right_child=1 -3 -4 4 5 -7 -8 -9 9 10 -12 -13 -14 -15
leaf_value=-1.3351084955708288 23.973355579376221 208.69966043325573 76.690045909392538 -21.976253872825989 96.157345871698297 3.9700832730247861 40.281155402843773 32.317180335003393 2.3164685374594387 50.242138888041183 5.0001645360674178 -26.357114131110059 -20.813743912546258 19.286322320676319
leaf_weight=13227 24 26 39 21 21 21 26 23 1614 30 70 21 38 51
leaf_count=13227 24 26 39 21 21 21 26 23 1614 30 70 21 38 51
internal_value=-1.9565e-09 120.031 -0.394787 -0.593053 30.6409 46.3233 65.2471 6.4044 -0.825476 2.90637 18.5728 1.94818 -1.31172 -1.2559
internal_weight=15252 50 15202 15163 112 68 47 44 15051 1735 100 1635 13316 13278
internal_count=15252 50 15202 15163 112 68 47 44 15051 1735 100 1635 13316 13278
is_linear=0
shrinkage=0.05


Tree=37
num_leaves=15
num_cat=0
split_feature=1 0 2 1 0 6 2 6 2 3 0 2 3 2
split_gain=2.6091e+08 1.66693e+08 8.38736e+07 3.97373e+07 1.53677e+07 1.96748e+07 1.30935e+07 1.16814e+07 1.03622e+07 1.78214e+07 1.23204e+07 1.98756e+07 8.58554e+06 7.2257e+06
threshold=7930.0350000000008 4619.7100000000009 5983.1850000000004 3074.4500000000003 1376.1450000000002 1740.5000000000002 2999.9900000000007 1313.5000000000002 454.03000000000003 3108.4700000000007 2590.2750000000005 2017.9800000000002 1927.4333333333334 3429.3900000000008
decision_type=10 2 10 10 2 2 8 2 10 2 2 10 2 10
left_child=2 -2 3 8 7 6 -6 -5 9 12 13 -12 -1 -10
right_child=1 -3 -4 4 5 -7 -8 -9 10 -11 11 -13 -14 -15
leaf_value=-1.2582097686018647 221.31294043404716 36.341466338059 72.855542422563602 -20.877441042945499 91.349479021344877 3.7715793246314639 38.267098162724423 30.701322937011721 2.3207236371980353 -35.469114765368012 56.752172455964264 -1.9266597747802736 19.296558993470438 -27.180593127296085
leaf_weight=13099 21 29 39 21 21 21 26 23 1784 38 27 31 51 21
leaf_count=13099 21 29 39 21 21 21 26 23 1784 38 27 31 51 21
internal_value=3.11823e-08 114.029 -0.375048 -0.5634 29.1088 44.0072 61.9848 6.08419 -0.784202 -1.2773 2.70637 25.3893 -1.17849 1.9775
internal_weight=15252 50 15202 15163 112 68 47 44 15051 13188 1863 58 13150 1805
internal_count=15252 50 15202 15163 112 68 47 44 15051 13188 1863 58 13150 1805
is_linear=0
shrinkage=0.05


Tree=38
num_leaves=16
num_cat=0
split_feature=1 5 2 1 0 6 6 1 6 6 0 0 5 3 0
split_gain=2.35471e+08 1.5624e+08 7.56959e+07 3.58629e+07 1.38693e+07 1.80923e+07 1.05425e+07 9.66865e+06 1.1845e+07 2.42184e+07 8.49668e+06 6.51935e+06 5.95317e+06 2.12443e+07 2.04647e+07
threshold=7930.0350000000008 8.5000000000000018 5983.1850000000004 3074.4500000000003 1376.1450000000002 947.50000000000011 1313.5000000000002 654.18500000000006 2612.5000000000005 2684.5000000000005 2889.3000000000006 3679.2150000000006 8.5000000000000018 3788.8283333333343 2889.3000000000006
decision_type=10 2 10 10 2 2 2 10 2 2 2 2 2 2 2
left_child=2 -2 3 7 6 -6 -5 12 10 -10 -9 -7 13 -1 -14
right_child=1 -3 -4 4 5 11 -8 8 9 -11 -12 -13 14 -15 -16
leaf_value=-1.7338294517562689 16.333326661586764 193.24617981543909 69.212764994303384 -19.833568972633 77.881626858918565 44.646077003479007 29.166254922618037 3.0263444721254489 68.290503122693025 0.72587261862225005 -21.288596908466236 6.3465392456054692 0.15597573336425413 -52.080152384440105 49.635110291980567
leaf_weight=9378 24 26 39 21 23 20 23 1241 21 36 37 25 4296 21 21
leaf_count=9378 24 26 39 21 23 20 23 1241 21 36 37 25 4296 21 21
internal_value=2.33267e-08 108.328 -0.356295 -0.53523 27.6534 41.8068 5.77998 -0.744992 3.31704 25.6181 2.32239 23.3686 -1.14036 -1.84632 0.396666
internal_weight=15252 50 15202 15163 112 68 44 15051 1335 57 1278 45 13716 9399 4317
internal_count=15252 50 15202 15163 112 68 44 15051 1335 57 1278 45 13716 9399 4317
is_linear=0
shrinkage=0.05


Tree=39
num_leaves=22
num_cat=0
split_feature=4 6 0 5 6 6 5 4 2 0 4 2 4 4 5 6 2 2 5 0 1
split_gain=2.37196e+08 1.86526e+08 4.27241e+07 2.60898e+07 2.79097e+07 2.44661e+07 2.16495e+07 8.58777e+06 9.09346e+06 1.51185e+07 5.22779e+07 1.16716e+07 8.16241e+06 4.47267e+06 3.65378e+06 2.33404e+06 2.58932e+06 2.08999e+06 1.96646e+06 1.87352e+06 1.02388e+06
threshold=7544.9250000000002 1751.5000000000002 1870.7100000000003 11.500000000000002 2422.5000000000005 2148.5000000000005 9.5000000000000018 414.24875000000003 -59.754999999999988 87.790000000000006 1371.0000000000002 2800.8200000000002 1885.5404166666669 1663.7112500000001 9.5000000000000018 137.50000000000003 1.0000000180025095e-35 731.72000000000014 2.5000000000000004 927.97500000000014 570.41500000000008
decision_type=2 2 2 2 2 2 2 2 10 2 2 10 2 2 2 2 8 10 2 2 10
left_child=2 -2 7 4 5 6 -4 14 12 10 -10 -11 18 -5 19 16 -16 -17 -9 20 -1
right_child=1 -3 3 13 -6 -7 -8 8 9 11 -12 -13 -14 -15 15 17 -18 -19 -20 -21 -22
leaf_value=-1.9414288737091647 34.698587544759114 225.14247344970704 12.501976274778059 -4.3308095031976697 63.244547939300539 -27.870373133250645 46.192316806499775 1.6637797801297307 7.0551825570643123 2.2267078924662358 71.204753363473074 -31.663593013469992 -33.226543731689453 -37.769813270568847 14.204518297987599 -0.19298245614243725 -0.92473614982759145 11.47273592337584 -2.6330308937618874 10.675067422389985 0.79896012716374154
leaf_weight=9176 36 20 179 20 36 28 65 429 343 1110 35 26 20 20 62 2470 52 39 702 30 354
leaf_count=9176 36 20 179 20 36 28 65 429 343 1110 35 26 20 20 62 2470 52 39 702 30 354
internal_value=-3.07448e-08 102.714 -0.378521 16.939 21.8727 16.397 21.4769 -0.7844 1.78662 4.33321 12.995 1.45105 -1.56313 -21.0503 -1.3468 0.306277 7.30345 -0.01165 -1.00321 -1.80036 -1.83963
internal_weight=15252 56 15196 348 308 272 244 14848 2665 1514 378 1136 1151 40 12183 2623 114 2509 1131 9560 9530
internal_count=15252 56 15196 348 308 272 244 14848 2665 1514 378 1136 1151 40 12183 2623 114 2509 1131 9560 9530
is_linear=0
shrinkage=0.05


Tree=40
num_leaves=15
num_cat=0
split_feature=1 0 2 1 0 6 5 5 1 2 0 0 3 3
split_gain=1.97272e+08 1.54142e+08 6.2417e+07 3.15296e+07 1.22106e+07 1.71538e+07 1.26154e+07 9.82655e+06 8.37669e+06 8.75339e+06 1.40977e+07 6.33813e+06 4.45269e+06 6.38848e+06
threshold=7930.0350000000008 4619.7100000000009 5983.1850000000004 3074.4500000000003 1376.1450000000002 1740.5000000000002 7.5000000000000009 6.5000000000000009 323.3250000000001 1574.7850000000001 2396.3150000000001 2889.3000000000006 3108.4700000000007 1927.4333333333334
decision_type=10 2 10 10 2 2 2 2 10 10 2 2 2 2
left_child=2 -2 3 8 7 6 -6 -5 12 11 -11 -10 13 -1
right_child=1 -3 -4 4 5 -7 -8 -9 9 10 -12 -13 -14 -15
leaf_value=-1.329513241001419 202.31829593295143 24.446433336981414 62.846871263552934 -17.159814154583476 79.28930072050828 1.6528898874918623 27.185037340436665 30.146959613618396 1.2530389034909186 4.1192902841685735 43.317427849769594 -24.539324091871581 -18.397093200683596 16.762221277976522
leaf_weight=11673 21 29 39 23 26 21 21 21 3154 81 32 24 38 49
leaf_count=11673 21 29 39 23 26 21 21 21 3154 81 32 24 38 49
internal_value=-1.02351e-08 99.1526 -0.326117 -0.488601 25.9422 39.2223 56.0087 5.41842 -0.685283 1.5445 15.2196 1.05826 -1.30928 -1.25389
internal_weight=15252 50 15202 15163 112 68 47 44 15051 3291 113 3178 11760 11722
internal_count=15252 50 15202 15163 112 68 47 44 15051 3291 113 3178 11760 11722
is_linear=0
shrinkage=0.05


Tree=41
num_leaves=26
num_cat=0
split_feature=4 6 4 5 5 1 6 6 1 1 4 2 4 3 5 4 4 3 5 4 3 4 1 1 2
split_gain=1.99928e+08 1.68448e+08 3.29573e+07 2.28526e+07 3.18615e+07 8.0937e+07 3.60709e+07 6.30144e+07 2.89365e+07 7.04266e+06 6.32552e+06 5.36812e+06 6.48381e+06 1.07143e+07 4.0322e+06 2.43278e+06 2.39894e+06 6.18824e+06 1.76777e+06 1.72595e+06 1.72489e+06 5.48087e+06 2.0751e+06 1.3435e+06 1.04113e+06
threshold=7544.9250000000002 1751.5000000000002 1131.6308333333334 11.500000000000002 9.5000000000000018 693.40500000000009 2384.5000000000005 2530.5000000000005 3074.4500000000003 928.06500000000017 1885.5404166666669 288.53500000000003 597.30750000000012 483.6183333333334 10.500000000000002 724.02416666666682 220.39333333333335 109.42000000000002 8.5000000000000018 451.47250000000003 30.025000000000002 104.64083333333333 303.55000000000007 187.35000000000005 1.0000000180025095e-35
decision_type=2 2 2 2 2 8 2 2 10 8 2 10 2 2 2 2 2 2 2 2 2 2 10 10 8
left_child=2 -2 11 4 6 -6 9 -8 -7 -4 -5 14 18 -14 20 -15 24 -18 23 -20 21 -1 -22 -13 -16
right_child=1 -3 3 10 5 8 7 -9 -10 -11 -12 12 13 15 16 -17 17 -19 19 -21 22 -23 -24 -25 -26
leaf_value=-1.5685032131990262 29.664865917629665 210.64498809814455 -11.196445563473279 -5.2173450015840075 121.23050649891729 -1.888710509406196 92.535761445760727 -4.5416455187116354 63.636417165009874 5.4787559521235645 -44.025540415445967 -1.8731622111875081 39.69743792492411 0.1014620441709246 0.87859771004848697 7.6426995820132166 31.618216009140014 3.0961960902355745 0.83029799426869466 6.5700599679407077 -2.5716315728177861 4.3940464003153616 -0.6833419857148415 1.1043086533208866 -3.0658592888962328
leaf_weight=2404 36 20 79 21 23 63 32 35 23 319 21 1150 23 175 636 275 20 387 743 159 5360 459 1997 565 227
leaf_count=2404 36 20 79 21 23 63 32 35 23 319 21 1150 23 175 636 275 20 387 743 159 5360 459 1997 565 227
internal_value=2.23745e-08 94.3006 -0.347515 10.9809 13.586 37.917 7.88256 41.8237 15.6355 2.16885 -24.6214 -0.826137 1.02391 6.41129 -1.32367 4.71 1.33341 4.49777 0.0501906 1.84207 -1.65385 -0.612579 -2.05907 -0.892246 -0.158936
internal_weight=15252 56 15196 616 574 109 465 67 86 398 42 14580 3090 473 11490 450 1270 407 2617 902 10220 2863 7357 1715 863
internal_count=15252 56 15196 616 574 109 465 67 86 398 42 14580 3090 473 11490 450 1270 407 2617 902 10220 2863 7357 1715 863
is_linear=0
shrinkage=0.05


Tree=42
num_leaves=13
num_cat=0
split_feature=1 5 2 1 0 6 1 6 3 0 6 3
split_gain=1.65029e+08 1.42745e+08 5.10438e+07 2.69871e+07 1.10864e+07 1.58912e+07 1.1984e+07 9.15137e+06 8.07704e+06 8.23349e+06 1.77853e+07 7.29394e+06
threshold=7930.0350000000008 8.5000000000000018 5983.1850000000004 3074.4500000000003 1376.1450000000002 1740.5000000000002 4397.920000000001 1313.5000000000002 3788.8283333333343 1870.7100000000003 2422.5000000000005 1709.4649999999999
decision_type=10 2 10 10 2 2 10 2 2 2 2 2
left_child=2 -2 3 8 7 6 -6 -5 9 11 -11 -1
right_child=1 -3 -4 4 5 -7 -8 -9 -10 10 -12 -13
leaf_value=-0.66498293238478878 2.7565800189971927 171.85623104755697 56.830028597513831 -19.412481289818174 28.102236429850265 0.50130335716974173 78.609177697223174 26.240150451660156 -25.336602343934956 4.5199754906372283 53.834404640197754 -23.198511706458198
leaf_weight=14749 24 26 39 21 24 21 23 23 33 213 20 36
leaf_count=14749 24 26 39 21 24 21 23 23 33 213 20 36
internal_value=-1.10192e-08 90.6884 -0.298278 -0.445215 24.0076 36.6616 52.8184 4.45139 -0.627177 -0.572882 8.75297 -0.71985
internal_weight=15252 50 15202 15163 112 68 47 44 15051 15018 233 14785
internal_count=15252 50 15202 15163 112 68 47 44 15051 15018 233 14785
is_linear=0
shrinkage=0.05


Tree=43
num_leaves=13
num_cat=0
split_feature=1 0 2 1 0 6 5 3 1 6 0 0
split_gain=1.48938e+08 1.41912e+08 4.6067e+07 2.43559e+07 1.00055e+07 1.52925e+07 8.61461e+06 7.28953e+06 8.16029e+06 9.08496e+06 6.06102e+06 5.35185e+06
threshold=7930.0350000000008 4619.7100000000009 5983.1850000000004 3074.4500000000003 1376.1450000000002 947.50000000000011 6.5000000000000009 3788.8283333333343 784.42000000000019 2612.5000000000005 3679.2150000000006 3679.2150000000006
decision_type=10 2 10 10 2 2 2 2 10 2 2 2
left_child=2 -2 3 7 6 -6 -5 8 11 -10 -7 -1
right_child=1 -3 -4 4 5 10 -8 -9 9 -11 -12 -13
leaf_value=-0.89152857603099811 185.14234615507581 14.472750644026133 53.988528823241211 -16.911288319463317 67.994880170407498 38.392840563058854 27.382280149913971 -24.069771633726177 2.9220305544734977 27.562741400645333 1.4641405029296877 20.989909192493982
leaf_weight=14035 21 29 39 23 23 20 21 33 916 39 25 28
leaf_count=14035 21 29 39 23 23 20 21 33 916 39 25 28
internal_value=5.33044e-08 86.154 -0.283364 -0.422954 22.8072 34.8286 4.22882 -0.595818 -0.544238 3.9283 17.8769 -0.847962
internal_weight=15252 50 15202 15163 112 68 44 15051 15018 955 45 14063
internal_count=15252 50 15202 15163 112 68 44 15051 15018 955 45 14063
is_linear=0
shrinkage=0.05


Tree=44
num_leaves=25
num_cat=0
split_feature=4 2 4 5 5 1 6 6 1 1 4 2 4 3 5 4 1 2 1 1 5 4 1 3
split_gain=1.56832e+08 1.56637e+08 2.47871e+07 2.14483e+07 2.78893e+07 7.34735e+07 3.14978e+07 8.15821e+07 2.23117e+07 8.85958e+06 6.58882e+06 4.79776e+06 5.66603e+06 9.72964e+06 3.59568e+06 2.19633e+06 2.16463e+06 1.95734e+06 1.90125e+06 1.62374e+06 1.58509e+06 1.5217e+06 1.1951e+06 829824
threshold=7544.9250000000002 16255.26 1131.6308333333334 11.500000000000002 9.5000000000000018 693.40500000000009 2392.5000000000005 2530.5000000000005 3074.4500000000003 5814.9100000000008 1885.5404166666669 288.53500000000003 597.30750000000012 483.6183333333334 10.500000000000002 765.00500000000022 1366.1700000000003 -1.0000000180025095e-35 1174.3900000000003 579.7850000000002 8.5000000000000018 451.47250000000003 187.35000000000005 961.82500000000016
decision_type=2 8 2 2 2 8 2 2 10 10 2 10 2 2 2 2 10 8 10 10 2 2 10 2
left_child=2 -2 11 4 6 -6 9 -8 -7 -4 -5 14 20 -14 18 -15 17 -16 19 -1 22 -22 -13 -20
right_child=1 -3 3 10 5 8 7 -9 -10 -11 -12 12 13 15 16 -17 -18 -19 23 -21 21 -23 -24 -25
leaf_value=-1.5858640057182469 170.18505900347677 2.8335070379849139 3.5131585886797958 -5.1706882068089079 114.18356880519701 -1.8130676647973438 116.96900530728426 -5.9048707689557762 55.724480570917549 -30.612080183029175 -44.778361293247769 -1.7016785910984744 37.782102170197867 0.88531695199767935 16.533101351261138 7.8726435588436878 15.594428440240714 0.76395751213110086 -5.7114079759140646 1.069492888085994 0.86264077393014693 6.2521016852660756 1.1065401649323447 -16.705637073516847
leaf_weight=9466 27 29 388 21 23 63 22 35 23 20 21 1150 23 221 20 229 26 1224 121 613 743 159 565 20
leaf_count=9466 27 29 388 21 23 63 22 35 23 20 21 1150 23 221 20 229 26 1224 121 613 743 159 565 20
internal_value=4.18179e-09 83.5209 -0.307789 9.51663 12.0404 34.8042 6.70433 41.5201 13.5749 1.84035 -24.9745 -0.722868 1.02614 6.06232 -1.19323 4.44109 1.31591 1.01748 -1.50503 -1.42437 0.115893 1.81267 -0.776522 -7.27087
internal_weight=15252 56 15196 616 574 109 465 57 86 408 42 14580 3090 473 11490 450 1270 1244 10220 10079 2617 902 1715 141
internal_count=15252 56 15196 616 574 109 465 57 86 408 42 14580 3090 473 11490 450 1270 1244 10220 10079 2617 902 1715 141
is_linear=0
shrinkage=0.05


Tree=45
num_leaves=27
num_cat=0
split_feature=4 6 4 5 5 1 6 6 1 1 4 2 4 6 3 5 4 4 3 1 1 5 4 1 2 3
split_gain=1.41541e+08 1.51768e+08 2.23704e+07 1.93571e+07 2.51701e+07 6.63098e+07 2.84268e+07 7.36279e+07 2.01363e+07 7.99577e+06 5.94641e+06 4.32998e+06 5.11359e+06 9.32094e+06 1.8095e+07 3.2451e+06 2.27544e+06 2.04865e+06 5.62778e+06 1.71588e+06 1.4816e+06 1.43055e+06 1.37334e+06 1.07858e+06 927670 748916
threshold=7544.9250000000002 1751.5000000000002 1131.6308333333334 11.500000000000002 9.5000000000000018 693.40500000000009 2392.5000000000005 2530.5000000000005 3074.4500000000003 5814.9100000000008 1885.5404166666669 288.53500000000003 597.30750000000012 293.50000000000006 722.44500000000005 10.500000000000002 724.02416666666682 220.39333333333335 109.42000000000002 1174.3900000000003 304.37500000000006 8.5000000000000018 451.47250000000003 187.35000000000005 1.0000000180025095e-35 961.82500000000016
decision_type=2 2 2 2 2 8 2 2 10 10 2 10 2 2 2 2 2 2 2 10 10 2 2 10 8 2
left_child=2 -2 11 4 6 -6 9 -8 -7 -4 -5 15 21 14 -14 19 -15 24 -19 20 -1 23 -23 -13 -17 -21
right_child=1 -3 3 10 5 8 7 -9 -10 -11 -12 12 13 16 -16 17 -18 18 -20 25 -22 22 -24 -25 -26 -27
leaf_value=-1.6395351399224278 17.99274559020996 189.77854309082034 3.3375004611678962 -4.9121539342971081 108.47439034503439 -1.7224139985584079 111.12055163816973 -5.6096266501290462 52.93825663690982 -29.081478018760681 -42.539443860735219 -1.6165946119051915 58.909782894797949 -1.8135198385078715 5.1504814644249119 0.8503833381693412 5.869928536663453 30.037509527206421 2.8377366712928129 -5.425837752838766 -0.069935023772609781 0.81950872369200833 5.9394964814935847 1.0512131771471649 -2.8729385585249259 -15.870355033874512
leaf_weight=8240 36 20 388 21 23 63 22 35 23 20 21 1150 23 161 49 636 240 20 387 121 1839 743 159 565 227 20
leaf_count=8240 36 20 388 21 23 63 22 35 23 20 21 1150 23 161 49 636 240 20 387 121 1839 743 159 565 227 20
internal_value=-2.69567e-08 79.3448 -0.2924 9.0408 11.4384 33.064 6.36911 39.4441 12.8961 1.74833 -23.7258 -0.686724 0.974832 5.75921 22.3236 -1.13357 2.78505 1.25011 4.17433 -1.42978 -1.35315 0.110098 1.72203 -0.737696 -0.128984 -6.90733
internal_weight=15252 56 15196 616 574 109 465 57 86 408 42 14580 3090 473 72 11490 401 1270 407 10220 10079 2617 902 1715 863 141
internal_count=15252 56 15196 616 574 109 465 57 86 408 42 14580 3090 473 72 11490 401 1270 407 10220 10079 2617 902 1715 863 141
is_linear=0
shrinkage=0.05


Tree=46
num_leaves=17
num_cat=0
split_feature=4 2 4 6 6 1 3 2 1 6 4 3 6 5 6 3
split_gain=1.27741e+08 1.40975e+08 2.05216e+07 1.83867e+07 1.01793e+07 9.42691e+06 1.26644e+07 1.21416e+07 1.20333e+07 6.06475e+06 4.19036e+06 2.43393e+07 3.22379e+06 2.53982e+06 1.71445e+06 1.57519e+06
threshold=7544.9250000000002 16255.26 3311.2658333333343 1751.5000000000002 832.50000000000011 1464.2350000000004 3108.4700000000007 640.11000000000013 1740.2700000000002 923.50000000000011 430.64750000000009 169.00500000000002 164.50000000000003 8.5000000000000018 151.50000000000003 559.29166666666686
decision_type=2 8 2 2 2 10 2 10 10 2 2 2 2 2 2 2
left_child=2 -2 5 4 -4 10 7 9 -9 -7 13 -12 -13 15 -15 -1
right_child=1 -3 3 -5 -6 6 -8 8 -10 -11 11 12 -14 14 -16 -17
leaf_value=-1.5252695230198798 157.59494838008175 -1.1696293271821121 17.018782455856734 -7.2249323393169211 54.107583772813953 -6.6733411925179631 -24.83865445808128 50.676204133802848 13.713199908325548 11.203974813386935 42.677273712158211 -5.1043399275165715 1.2629856815876419 4.5402257466197602 -0.19781065879340756 12.523644180297852
leaf_weight=8318 27 29 37 38 37 84 27 31 76 109 35 219 2154 201 3810 20
leaf_count=8318 27 29 37 38 37 84 27 31 76 109 35 219 2154 201 3810 20
internal_value=-1.78506e-09 75.3776 -0.27778 21.0458 35.5632 -0.436109 7.96084 10.9128 24.4221 3.42317 -0.622177 1.28585 0.675356 -0.994234 0.0396227 -1.49157
internal_weight=15252 56 15196 112 74 15084 327 300 107 193 14757 2408 2373 12349 4011 8338
internal_count=15252 56 15196 112 74 15084 327 300 107 193 14757 2408 2373 12349 4011 8338
is_linear=0
shrinkage=0.05


